12 1024
forest -5.236594e-05 2.3089e-05 0.000498374 0.0008798118 -0.0009084912 -0.00069500087 0.0006307493 0.0008762684 -0.0004897879 -0.00036751677 0.0007207524 -0.00014975306 -0.00044302864 0.0006400441 -0.00047462503 -0.00017734547 0.000280916 9.686267e-05 -0.000809103 -0.00092273613 0.00071403966 0.00049514277 0.000659931 7.449859e-05 0.00062020414 -0.00033255527 -9.242201e-05 0.00056333723 -0.00073453493 -0.00038438512 -0.00073355297 -9.082444e-05 0.0009314569 -0.00071476237 -0.00022790709 -0.00018923252 0.0007888122 -0.00057918904 4.4103945e-06 -0.00046423182 -0.0009378467 0.0004889935 -0.0008554283 -0.00042888918 -3.4277327e-06 -2.8923969e-05 -0.000748168 0.00093893975 0.00048652908 0.00090167415 -0.0007966716 0.0004390428 -0.00040401134 8.05211e-05 0.00082994334 -0.00043575943 0.00044116215 -0.0006627891 -0.0003465321 0.00091782305 -0.00015406765 3.138394e-05 -0.00040435838 -0.0007502625 -0.00014726643 0.0002411909 -8.672138e-05 0.00054039666 -0.00026786886 0.00022070948 0.0005327924 0.0008150345 -0.00014196686 -0.0008992327 0.00042681175 5.5838376e-05 0.00072674884 -7.942214e-05 -0.0002576576 -0.000854786 -8.3648134e-05 0.00027603155 0.0005274833 0.000688736 -0.00055694545 0.00018152536 0.0005946156 -0.00046855968 -0.0003034434 0.000663831 0.0001593238 1.854659e-05 0.00033922237 2.1267333e-05 0.00093933847 0.0004941996 -0.0008708389 -0.0006876524 8.80328e-05 0.0006242709 -0.00084176636 0.00035798224 0.0005068246 0.00056073617 0.00072919123 -0.00060231204 0.00010797009 0.0005905549 -0.00027734868 -0.00060288305 -4.006084e-05 -0.00081728015 -0.0005468762 0.0006938026 0.00032739644 0.0007056318 0.00066408666 0.000735424 -0.0003700346 -5.4863864e-05 0.00022933364 -0.00044131174 0.00081921206 -0.0009627113 0.00066060945 0.00028461101 -0.00048172183 0.0004295105 -0.00016988034 0.0006554086 0.0009731299 -0.0004260199 -5.8529084e-05 -0.0005562146 0.00037605688 0.00027213152 0.0006729567 0.0005958101 0.0009314938 0.0009056071 0.00077129574 -0.00068256876 -0.0008941274 -3.4741475e-05 -0.00030271884 0.0007709294 0.0005799389 -0.00015094364 0.00014755502 0.00017480867 0.0007634347 -0.0009287292 -2.0071398e-05 0.00033878873 -9.169651e-05 0.0008185324 0.0008799593 0.0006383307 -6.949424e-05 0.0007529692 -0.00083343114 0.000313194 -0.0004529294 -0.0004969683 0.00035054865 0.0005244472 0.00075874163 -0.00056313537 0.00072591414 0.0006470211 -0.00036228518 -0.0008540666 0.00053100265 0.00063571834 -7.69092e-05 -0.00065525935 -0.0006919849 -0.00024385354 0.0005022709 -0.00035793334 -0.0009150449 0.00037370506 0.0004769999 -0.0006277894 0.00011802325 -0.00020262471 2.383138e-06 -0.0009651864 0.00026289106 -0.00046387757 0.00010621548 -0.00015392818 0.00021451886 -0.00076968514 -0.00026534998 0.000260078 0.0005221369 -0.00023354637 -0.0009287201 0.00044002722 9.234762e-06 0.00030051952 -0.0006652974 -0.00013432279 0.00074888486 0.0007174228 -0.00035872043 0.00025807635 -0.0008122197 0.0006060045 -0.00045286352 -0.0003089948 0.00090931216 8.529157e-05 0.00073151395 -0.0005931702 0.00050395576 0.00096902566 -0.0008259171 -0.00050153234 -0.0006899255 -0.00047486834 -0.00036900037 -0.0008336132 0.00077691465 -0.00047304085 0.0008226185 0.0005139229 -0.00063965097 0.00038651086 0.0005341943 -0.00072524766 -0.0007232148 -0.00024172175 -0.000842356 -0.00015445042 -3.939774e-05 0.00032223482 0.00014080864 -8.6076325e-05 -0.00054629473 0.00016898103 -8.763396e-05 0.0006634464 0.0003880459 0.0004423312 0.00014006894 -0.00026365777 -0.00042644655 -0.000100788544 0.00014033471 -0.0002583993 -0.0006907991 -0.000762237 -0.00089079945 -0.0005796064 -0.00018041255 -0.00042225304 -0.0006309248 -0.00036301976 0.00041886314 -0.00036514096 0.0008181812 0.00014980405 -0.0007072578 0.0009212694 0.0007452356 0.0005364533 -0.00066883257 0.000568621 0.000391513 0.0005063837 0.0004156154 0.00018942915 -0.00030958618 0.00081580516 0.00093868945 0.0003703714 -0.0002770503 6.960472e-07 0.00011902524 -0.00082600827 -0.0008031196 -2.2560125e-05 0.00012082886 -0.00056087703 -0.00046145252 -0.0007173901 0.00081334135 1.1845492e-05 -0.000440371 0.00055680715 0.0008964859 -0.00040037814 0.0007778009 0.00052494474 0.0005741331 5.0057657e-05 0.00080205896 -0.0006854532 -0.00080494897 0.0009081401 -1.9302825e-05 -0.00019211683 0.00044957327 -0.0003999332 0.00026788225 0.0006777311 0.00059232675 -0.000733476 0.00091624516 0.0004562313 0.00038731645 -0.00060971733 0.00082616985 -0.00020997704 0.00086183473 -0.0005236331 -0.0007938886 0.00066646084 0.0001632024 -0.00021469814 0.0009290626 0.0009271343 -0.0009544968 0.00024465122 0.0006012395 0.00037816959 0.00019753783 4.204118e-05 6.578432e-05 -0.000373109 -0.00069729006 -0.00020399143 0.00038319314 0.0008611996 0.00090421387 -0.00058358756 -0.0009182296 0.00095355243 0.00033493992 0.0005045036 0.00061351026 -0.00027385377 0.0007151078 0.00027639372 0.00028037152 -0.000232458 -0.00030549313 -0.00023145915 0.00041762076 7.4275304e-06 -0.00093596475 -0.0009439008 -0.0006004096 -1.2555625e-05 0.00019506016 0.0009210906 0.00054534676 -0.00041901332 2.7179369e-05 0.00048480066 0.00075178803 -0.00011174055 0.00042220904 -0.0005678105 -7.853424e-05 0.0007910206 -0.0002304751 -0.0009436968 0.0005643809 -0.00038377172 -0.000119421165 0.0009746599 -0.00022034673 -0.0004645571 -0.00052044797 0.00068172754 -0.00055750704 0.0002064124 -0.00051324803 0.000597726 0.00042551826 0.00025452685 -0.00014561357 -0.00026817026 0.00087821647 0.000509353 -0.00021118356 -0.000924835 -0.0007252004 -0.000103881 -7.763156e-05 -0.0002502841 0.0009455782 -4.4777407e-05 0.0005736095 -0.00072730344 -0.00024473376 -0.00054197886 -0.00069716945 0.0001211944 -0.0007008512 -0.00021920097 0.00036321324 0.000569641 0.00011701009 0.00020534487 -0.00040140538 0.00070559897 -0.00061592204 0.00045382965 -0.0008027317 0.00019887381 -0.00048604026 -0.0004148133 -0.00030361174 0.0005522665 0.00056625006 -0.00048580556 7.55206e-05 -0.0008296658 0.00076267635 0.0009040324 -0.00026780542 7.814681e-05 7.291522e-05 0.0005349497 -0.00084043737 5.7075755e-05 0.000670842 0.00021792913 0.000109831686 -0.00091036677 0.00082835613 -0.0006117312 -0.000292224 0.00034119014 -7.545191e-05 0.00013782142 0.00017402263 -0.0006668847 -0.0009496886 0.0008828696 0.00060527876 -0.0006750906 0.00033237133 2.0123436e-05 0.000464233 -0.0006953069 0.00039325724 0.0004245541 0.0009723994 -0.00043688866 -0.0001356703 -0.00071458216 -0.00094705366 -0.0008867439 -9.987841e-05 -0.0006350869 0.00047360628 -0.0006019557 0.0002460142 7.221103e-05 -0.00033126504 -9.562727e-05 0.00097452395 0.000893153 -0.00043572555 0.0008870143 -0.00055095344 0.0005791916 -0.00030246272 0.000335132 0.00029465102 0.0006738731 -0.00023182458 0.00085693714 0.0007411551 -0.0009323873 -0.0007820517 -0.00074588833 0.00028547435 -0.0002729221 -0.000676711 -0.0007937758 0.0008114433 0.00019438367 -0.0009109392 -0.00046803872 0.00030632212 -0.00046027405 0.0005157073 -0.000413422 0.00025798788 -0.0007857117 0.0006064342 0.00047059462 7.6874276e-05 0.00029428198 -0.0008522932 0.00020802359 -8.530705e-05 -0.00091006723 -0.000920717 -0.00013776543 0.00043285242 0.0003617257 -0.000634638 -0.000671198 -0.00048822386 -0.00022332463 -0.0007080359 -0.000937824 -0.00026793254 -0.00081668363 -0.00058973394 -0.00055380166 -0.00022891967 -0.00016669894 -0.0008747069 -7.179682e-05 0.0007961432 0.0007510185 -0.00070372224 -0.000358089 0.0003045461 -0.0009346409 0.00014418352 0.0006371549 0.0005611738 -0.00085576775 -0.00044112734 -0.0007949376 4.487927e-06 0.0009046517 0.00058333063 0.0004948543 0.0004942444 -0.00031669112 0.0009328304 -0.0007184008 -0.00070999877 -0.00022122939 -7.603131e-05 -0.0003140726 -5.7869707e-05 0.00073133036 -6.811705e-05 -0.00015868561 0.00026800775 -0.00081631844 0.00076716836 0.0008336039 -0.000935946 0.0002388932 0.00096728234 -0.0007486136 -0.00068036315 -0.00075551926 0.0008199144 -6.653671e-05 0.00089300866 -0.0007967013 0.0003655356 0.0002573284 7.253059e-05 0.00022731209 -0.0007294037 -0.0009139037 0.00022993912 0.0006004351 0.0007798524 0.00056014594 -7.5911754e-05 0.0008111489 -0.00091174943 0.00033263012 2.605014e-05 0.000376684 0.0007212679 -0.0006567546 0.00054535945 -0.00092990475 -7.8560435e-05 -0.0008485095 -0.0004979173 0.000907151 -0.00018147088 0.00028461195 0.00088586716 0.0008728645 -0.00080160494 -0.00029417127 0.00096548884 0.0004984796 -0.00015508663 -0.0008488302 0.00028921058 -0.00065194315 0.00079416716 -0.00043528655 -0.00010433176 9.8277815e-05 -1.8663472e-05 0.0001121267 0.0005970567 -1.9796425e-06 -0.0003169888 -0.00014753209 0.0005759081 0.00014786154 -7.072871e-05 0.0009114499 -0.0004805941 -8.187594e-05 0.0008960363 0.00065912376 0.00014676328 -0.0008674376 0.00011218223 -0.00022346247 0.0009148669 0.00011815701 0.00014551403 0.00023500097 -0.00017929752 -0.0004882455 2.2698194e-05 -0.0001966973 0.00064462237 0.0008730589 -6.589398e-05 0.0002907241 -0.00059645064 0.00016594969 -0.0006763899 -0.000849026 -0.0005761917 -0.0008746558 0.0007107026 -0.00056367496 0.00080823747 -0.00070737745 0.00033414795 0.0009448241 -0.00076029764 -0.00097119703 -0.00042276818 -0.00026202446 -2.64931e-05 -0.00086245616 -0.0008415583 0.00027345808 -0.0008014069 -0.0008856774 -0.00022856111 -0.00084294996 -0.00068912597 -0.0008204249 -2.942665e-05 -0.00044573226 0.000647185 0.00014913676 -0.000326316 0.0005965793 -0.00058723486 -0.00045470404 -0.0007038583 -0.00042349414 -0.00017669238 0.0006337542 -0.00027054618 0.00048036792 0.00067426194 -0.0007288775 0.00044578617 0.00059833773 -0.00028852292 0.0006469748 0.0005982304 -0.0006292466 -0.0006606007 0.0002479452 -0.00015857606 -0.00059229764 0.0009276571 -0.0005009909 -0.0006400485 -1.170754e-05 -0.00026381132 4.3398468e-05 -0.0003454549 -4.0950254e-05 -6.920076e-05 8.035358e-05 0.0008002751 -0.00056022534 -0.00016206328 0.0005441023 0.000797668 -0.00043388992 0.00087748375 0.00080602197 -0.00043312716 2.9600109e-05 0.00041743077 -0.0003834297 -0.00054296537 -0.000635969 -6.550178e-05 -2.889859e-05 0.00043584814 -0.00024160685 -1.6856357e-05 0.00024041755 0.00047535147 -3.0086376e-06 -0.00061908294 -0.0009043757 2.6032794e-06 0.0006505756 0.00014316628 -0.00087563694 -0.00077525433 0.0006398342 -0.00036969536 0.0006108391 -0.00065244455 0.000828092 -0.0006363598 0.0003210957 -0.000103221275 -0.0006628445 -0.00032105437 -0.00011341914 -0.0005342715 -0.00011829566 -0.0007386048 0.00025846285 0.0008857567 -0.00023215334 -9.536231e-05 0.00034312124 0.0008461999 -0.0005783059 -0.000672615 -0.0002864243 0.00089332974 8.459645e-05 -0.00084750005 -0.00014130655 0.00092572905 -0.0007372546 -0.00052325183 0.00090982055 -0.00087634043 0.0003736238 6.498443e-05 0.0006504591 0.0008117923 -0.000278397 -0.00038987433 0.00086893723 0.00020406698 0.0006102482 -0.0009224331 0.00093653554 -0.00013167073 -0.00059102685 0.0002922397 -4.459091e-05 0.0004596184 -0.00022295129 -0.0004040862 0.00022245105 0.0008158578 -0.00048785214 0.00026061316 -0.0007803276 -0.00066145964 -4.567078e-05 -0.0008562234 0.00027240603 0.00015611283 -0.00022653246 0.00048865145 0.00095202995 0.0008256121 -0.00018361572 0.0002009914 -0.00039098528 -0.00080482475 0.0006130816 -0.00019034976 -6.505905e-05 -0.00017298164 -0.00044293609 0.00039665133 -0.0004170098 -0.0009354049 0.0008733511 0.000406745 0.00090182957 0.00064877956 0.00028561882 0.0009574238 -0.00043209386 -0.00066438585 0.00041283015 0.00036416017 -0.00055318465 0.0009477305 -0.0003474909 0.00093255925 8.151622e-05 -0.0006189899 -0.00019307784 -0.0007204155 -0.00029096904 0.00010172825 0.0009260437 0.000913657 -0.00064412865 0.00033937022 0.0002222237 -0.0002431008 -0.0009012864 0.000100305304 -0.00079743227 0.000617206 -0.0005664141 0.00054057024 0.00096032454 -1.5625032e-05 0.0004422356 -0.00017669925 0.00071882433 0.0003847751 -0.0008799145 -0.00023422891 0.00035437196 -9.723473e-06 -0.0001173116 -0.00010307017 -0.00016324234 5.90774e-05 0.00040674757 -0.00041531166 -0.00037437712 -5.1578972e-06 2.6304275e-05 -1.6484992e-05 -0.00046733464 0.00042123068 -0.0002121015 0.0002054238 6.5090135e-05 0.00058297627 -0.00066820125 -0.0006655967 -0.00043713453 0.00092146767 -0.0001554573 -0.0009208245 -5.3226715e-05 -0.00043446512 0.0005859452 -0.0009359068 0.00027919933 -0.00090359687 0.00012205087 0.0005858592 0.00072239724 -0.00074428355 -0.00059111556 -0.0006678165 -0.0007732754 -0.00092764455 -0.00020756805 -8.163403e-05 -0.0007086134 0.00066279655 0.00010933785 0.0005692253 0.00014383462 7.70865e-05 -0.0007195439 -0.00021256425 0.0004219804 -0.00049661275 0.000110428664 0.0002815785 -0.00015003525 0.0009699507 0.000815394 0.00023590494 0.00069514115 0.0005753357 -0.00054498215 -0.00050353934 -0.00065120484 -0.00075945654 0.00081159454 -0.00019358809 -0.00066943 -0.00040570204 0.0005023561 -0.0002801891 -0.00036617776 0.0001583423 -0.00027112244 -0.00015472271 0.000104930834 -0.0002908149 0.00083196117 0.00038192724 -0.00097254524 0.00061128906 -0.0006595951 7.513992e-05 0.00043010106 -0.00049837644 -0.00020612008 0.0007905741 -0.00041443284 -0.0007457286 0.00090409303 -0.00021049776 -0.0004608821 0.00083699217 0.0004182948 0.00042234734 0.0009066907 -0.00082549616 0.00051321485 0.00019915542 0.00040901173 0.00016581058 0.00043595058 0.00043811428 0.0005961447 -0.00031270483 -0.00044684845 -4.1652005e-05 0.00024743495 -0.00031866867 0.000591574 0.00040567678 0.00075826095 0.00025090552 0.0007926448 -0.00013546972 0.00078886014 0.00036298984 -0.0007858715 -0.00038414204 -0.00024139439 0.00047783635 -8.517178e-05 -0.0002764559 0.0007650105 0.0009104395 -0.00015770784 -0.00050383294 -0.00045915612 -0.00047324714 -0.00093777594 0.00013398635 -0.0004125894 0.0002467489 0.0005482894 -0.0003970611 -0.00093716616 0.00015104469 -0.0006543088 0.00024366938 -0.00036920235 0.00069125206 6.252155e-05 0.00034774793 -0.00026749354 -0.00016704563 0.00074734306 0.00013746857 -0.0005713329 -0.00076508755 0.00012037961 0.00063033507 0.0005426123 -0.000876665 0.00083907857 0.00039521267 0.00072945363 0.0009517905 -0.00071187306 -0.0008828088 0.0005699219 0.0009171106 0.00034247315 0.00069226534 -0.00015311816 0.0007761229 -0.00092662685 -0.00078413077 -0.00064847374 -0.00039096235 0.00048722816 -0.00037241785 -0.0008124907 0.0008214626 -0.00036591815 0.000840693 -0.00047810073 0.0003826752 0.0004806657 0.00023365323 -0.0002752738 0.00027823483 -0.0008062731 -0.00027007225 -0.0002530428 0.00070791075 -0.00033822295
dense -0.00064450223 0.00042386982 -4.633644e-05 -0.00035132386 0.0006721164 0.0003781555 -0.00038087904 7.5379736e-05 0.0008929202 0.00075729063 0.00062127656 0.00045579125 0.00023286033 -0.0001798463 -0.0006221966 -2.9473682e-05 -0.00015286996 -5.588727e-05 -0.0006116085 0.0007259812 -0.0006437005 -0.0007069607 -0.00026925257 -0.00014798832 -0.0007456755 6.81876e-05 -0.00052012806 -0.00012456486 -0.00071924913 0.00019146176 0.0003196483 -2.2596214e-06 -0.0005320662 -0.0001685631 0.0006918864 0.00036486902 -0.00086728996 -0.00033335458 0.00022989279 0.000208791 -0.0009242195 0.00044640293 -0.00084540993 -0.0007213934 0.00034014764 -0.0003389608 0.00034809287 0.00086856354 -0.00034905493 0.00091019773 0.00016709359 0.0009616967 0.0005571331 -0.00089350424 -0.00032497372 0.0006377124 0.0005471464 0.00085014803 0.0006763772 0.00078504765 -0.0009592782 0.00041980715 -0.0004912184 0.00034300645 0.0005914734 0.0004289191 0.00073362887 0.0001462613 -0.00012352946 0.00056332035 -0.000550739 3.7687132e-06 0.0009234948 -0.00053527835 0.00037248817 -0.0007922872 0.0009541302 0.0007973744 0.0001250949 0.0004978104 0.00013751257 -0.0006303869 -0.0001394581 0.0006298013 -0.0004509088 -0.0003899478 0.0004808989 0.00026495103 -0.00018046633 -0.0002809515 0.0005869855 -0.00055827526 -0.00031608425 -0.00063357665 -0.0004135383 -0.00083798775 -0.00043650286 -0.0008311748 0.00013708766 -0.0008416207 -0.00096842344 -0.00080094 -0.00066139316 0.0006524009 0.00036958558 3.478187e-05 -0.0002888654 -0.00072542194 5.2091666e-05 4.88176e-05 1.9103405e-05 8.3261286e-05 7.679011e-05 -6.656279e-06 -0.0007819389 -0.00057326886 -0.0008186437 -0.00012812915 0.00017779658 0.0007243289 -0.00019174092 -0.00022707926 0.00092647993 7.783645e-06 -0.00023481657 0.0008403171 0.0002624027 -0.0005218723 0.00064336974 0.00044044468 -0.0006889128 -3.155996e-05 8.149282e-05 0.0005612654 -0.0001677397 -0.0002740752 0.00017074519 8.2731596e-05 0.000116487034 -0.0002572541 -0.00058454927 0.00071513513 0.00074095465 0.00081019115 -0.0008397312 0.00025746343 -0.0003476526 0.0009394926 0.00028357108 0.00045323372 0.00023297023 0.00064535916 -0.0005608682 0.0007709387 -0.0002354416 -0.00044549664 -0.00020126859 0.00095054274 -0.0006695889 -0.00021403516 0.00068369135 -5.444279e-06 -0.00061474286 -0.00062436773 0.00087308546 0.00062788825 0.0004661712 -0.00031855935 -0.000905041 0.0003698133 0.0006992725 -0.00055008684 -0.00076806766 -0.00029030663 -0.00048163068 -0.00022608507 -0.00018986489 -0.00051440636 0.00092256966 -0.0009080793 0.00043983862 0.00052775175 -0.00013762328 0.0008795989 0.0009653672 -0.0005346722 -0.0005879883 -0.00065888406 -0.00077098457 -0.00029764813 -0.0005462917 -0.00081491016 7.64553e-05 0.00029244693 0.0006264398 -0.0002567334 -0.00043490983 0.0001220284 3.8228696e-05 0.00079267565 1.7851591e-05 0.00070620957 -0.0008070816 0.0008235875 -0.0001844638 0.00084972207 -0.00074383174 0.00017542834 0.0001031725 4.4927e-06 -0.00049836456 -0.00090309547 -0.0007093962 -0.0007764818 0.00018688745 4.672527e-05 -0.00017706421 0.0006953287 -0.0002417668 -0.00013157318 -0.0008691957 -0.0009692786 0.00087396463 -0.000561908 -0.00062236306 0.0005077546 0.00065136654 -0.00066715246 9.372656e-05 -0.000586765 0.0001608734 -0.0004188749 -0.00033601536 0.000213444 0.0008458572 0.000657042 -0.0009450251 -0.00054903363 0.0007695637 0.00019427319 -0.00041563006 5.8477744e-05 0.00092978135 -0.0001076872 -0.00092037476 0.00015707128 0.0006086284 0.0006135127 0.00039957522 -0.00055178115 -3.620051e-05 -5.4021366e-06 0.0004464644 -0.00078531145 -0.000783038 2.5854562e-05 -0.00084065425 0.00056837464 -4.080194e-05 0.0009737478 -0.0005218728 -4.7474517e-05 0.0007574974 -0.00039725902 -0.000489834 0.00015528034 0.0002588568 -0.00025048433 0.00062964146 -0.00074804225 0.0003314024 4.7848676e-05 0.00085275224 0.0005842494 0.0006655627 0.00076392037 -0.00092774606 0.00093381084 -0.0007588628 -0.0002583504 -0.00047914148 -0.00048502896 -0.0007835538 -0.0007601157 -0.0004446496 -0.00012454705 -0.0004983387 0.0005996623 -0.00092935737 -0.00051827193 0.0009215969 0.000682747 0.0007495914 0.00041354878 4.952075e-05 -0.00058409607 0.0005877712 0.00025732722 0.0007518978 0.0006243987 0.00077564165 0.00084544986 -0.00096638233 -0.0006597368 0.00013062253 0.0006289359 0.0007200992 0.00053876766 0.0007482056 -0.00050054374 0.00064300874 -0.0004012083 -0.0008843108 0.0008927422 0.00013001997 -0.00026949996 -0.00024197681 -0.0004121561 0.0004699548 0.0004297092 -0.00025911746 -0.00071698055 -0.00034822768 -3.2872544e-05 0.000595302 -0.00027708383 -1.1806143e-05 8.591078e-05 -0.0006929345 0.00020166032 -0.00013988512 0.00027364737 0.00047287322 -0.00013203314 -0.00027149834 0.0007557273 0.00049273425 0.00065561733 0.00044098077 0.0008464019 0.0007299775 -0.000105653075 0.00085426157 0.00044938654 0.00053131185 -0.00013535982 -0.0001993475 -0.000432065 -0.0008315622 0.00029665313 0.0008674993 0.00087106857 -0.00018968305 0.0005943513 0.00036911364 -0.00041952787 0.00019950431 -0.0005310435 0.00080164964 0.0005305575 0.0003109799 0.00040064147 0.00084542483 0.00071015966 -8.139387e-05 -0.0006907 0.00081840553 0.0007064047 0.00016899139 -0.00013159099 -0.00057520426 -0.00044268463 0.00084452797 -0.00030616287 -0.0006190253 0.00096387474 0.00075162563 0.0008906877 0.000110888854 -0.00081299606 0.0008227555 -0.00036096002 0.0005607591 0.0004288652 0.0009462837 -0.00090756814 0.0008992583 -0.0009063992 -0.0006745813 -0.00088888616 -0.00054170995 0.00071961875 0.0008949685 -0.00032474136 0.00036357914 -0.00035402377 0.0007696749 0.0005729371 2.0372681e-08 -0.00035436277 -0.0007054986 0.00046568515 0.00014189247 -0.0002551939 0.00076541083 -0.00039547018 -0.0008934557 -0.00022026082 1.2221397e-05 -0.0006483648 -0.00053580233 -0.0008300564 0.0009013548 0.0007250027 -2.883235e-05 0.0007194984 0.0007764442 -7.652084e-05 0.000645712 0.00036792224 0.0004957854 0.0007082999 -0.000462831 -0.00021343096 8.526596e-05 0.00041369197 0.0003226886 0.0004976394 0.000447899 -0.0008240731 -0.0003109218 -0.0007067148 0.00094545144 0.0004889257 1.6683713e-05 0.000401658 -0.000747669 -0.000614712 0.00030042906 0.0006381483 0.00038572995 0.0005876975 -0.00019395817 -0.0003266728 2.023147e-05 -0.0003119493 -0.0005387602 -0.0007606016 0.00063823664 -0.00010647823 -0.00018465624 -0.0007621851 0.00091187237 8.477946e-05 0.0001728161 0.00024332677 -0.0007212884 0.00016004127 0.00029067998 -0.00083662395 0.00048396504 0.00023763755 0.00073221803 0.00049260724 -0.00029606605 -0.00069950556 0.00069298956 0.00018569676 0.00050773786 0.00062315515 0.00018674601 -0.00059839955 -6.1490573e-07 0.00080745097 -0.00059556135 0.00092170713 -0.0007022405 0.00041336822 0.00021126901 0.0007266323 -0.0004774673 -0.00044573692 -0.0005955248 0.00032220385 -0.00043940067 0.000832313 -0.00041883078 -0.0008892012 -0.00047034724 0.00062661036 -0.0006221996 -0.00051382196 -0.0007133214 0.00058811146 0.00032789004 0.00027816312 -0.00030649907 0.0005889542 -0.00060085405 -0.00019336923 -0.00058428536 -9.7234384e-05 -0.00019736192 0.0008287056 7.6172873e-06 -0.0008374342 -0.0005301854 -0.000671483 0.00026292785 0.00092350075 -0.00056796835 0.0008071314 0.0008332082 -0.00068971084 -0.00086750125 0.00092472497 0.000817809 -0.00045809487 -0.0006568399 0.00076583365 0.0003675142 0.00079057657 -0.0007394088 -0.00093018403 0.00015404355 -0.0009575945 -0.00047713716 -0.0003379007 0.00093954324 0.0008421454 -0.0002769148 0.0005690305 0.0008044038 -0.00022099423 0.00093052164 0.0006992398 0.00019936531 -0.00037585583 -0.00049626466 -0.00029801298 0.00077029923 -0.00060453464 -0.00028467015 0.00089756073 0.00033756404 0.0005930285 -0.00078445475 -7.338915e-05 0.00053930155 -0.00046039734 0.0007303216 0.00091011636 -3.997737e-05 -0.00020152354 -5.7945144e-05 -0.0005650283 -0.0008189728 -0.0001471556 -0.00024972495 0.00042797206 -0.000670656 0.0005286812 -0.0006586998 -0.0007637001 0.0008273156 0.00087095844 -0.00033996487 0.00034095848 -0.00056598976 -0.00085450057 -0.00053863006 0.00065905554 0.00062673434 0.0009216869 0.0006889927 0.00065966335 0.00012696942 -0.0009574514 0.00044802367 -5.256082e-05 0.00061836874 0.00017416745 -0.00030564435 0.00075780984 0.00015182281 5.391543e-06 -0.00045048376 -0.00082553946 -0.0007584797 0.0008467295 -0.0008715781 0.0008822965 -0.0009063494 -2.7026981e-05 -0.00018623506 -0.0008721822 0.0008427793 0.00066189584 0.0002948671 0.00047201687 1.0956079e-05 0.00092037895 0.0006856726 -0.000962278 -0.0004329317 -0.00012598746 0.00029762916 -0.00042226096 0.00014152017 -0.00076620106 0.00027129625 0.00045924727 0.00048215943 -0.00031012716 -0.0008229532 -0.000900451 -7.059565e-05 -0.00071557274 -0.0006655237 0.0005976568 0.00070042023 0.00020677922 -0.0007714259 -0.00055654184 0.000786313 0.00038289488 -0.00051176467 -0.0007218657 7.534714e-05 0.0003382573 0.00020304625 0.0003028129 -0.00054887694 -0.0009657701 -0.0006856286 2.2491091e-05 0.0004510429 0.00044202222 0.00018357544 0.00050494866 -1.0289135e-05 0.00040177407 -0.0008909415 0.00075204216 0.00060033926 0.0005004059 0.00070377626 0.00082419894 7.213827e-05 -0.00016639265 5.06473e-05 -0.00090984185 0.0008209194 -0.00062304025 0.0008230315 -0.0004144878 6.3168234e-05 -0.00089493836 -0.0009334539 -0.0007653135 -0.00075498596 3.6677928e-05 -0.0007057092 -0.00048341928 -0.0005148151 -0.00041887676 0.000684796 0.00047162012 0.0008479268 0.00069273356 -0.00055609434 0.000707109 -0.0009077054 -0.00025269226 -0.0007575358 0.00040943373 0.00017580378 0.0006880949 0.0002875682 -0.0006817236 0.0007531912 -0.00058485614 0.0008786825 0.00028898485 -0.00039211847 -0.00045790954 -0.0004313205 -0.00060023996 0.00091589266 -0.00025874958 0.0007590273 -0.00094534527 0.00020593661 -0.000120470184 0.0007367411 -0.0008842384 0.0007263245 -0.0004986129 -0.0005872827 -0.00055167545 -0.00032999704 -0.00033311488 -0.00031207665 -0.0007316603 6.9216476e-05 -5.6257006e-05 -0.00016445306 0.00036690745 -0.0007441591 -0.00031459203 0.00050345133 0.00083436165 -0.00095800194 0.0007026696 0.00051850465 -0.0003788767 0.00083751534 -0.0009005852 0.00070787896 0.0005238119 0.00012632762 -0.0005077885 -0.00040807156 -0.00032781053 0.00015705929 0.00015495159 0.0007215082 0.00097437436 0.00086595095 -0.00039125478 0.00094193267 -6.147858e-05 0.00047513994 0.0002489274 -6.150489e-05 0.00035814918 -0.00051947404 -0.0005621755 -0.00074264104 0.00018617522 0.00063729193 8.614536e-05 0.0001227489 0.00030972622 0.0007944009 -0.00075195904 0.00022077654 -0.00072989357 0.00036228634 0.0009287646 0.00073440024 0.00062754203 0.0007826929 0.0006397603 0.0006695973 0.0008478601 -0.00048320706 0.00089970254 0.00049406267 -0.0002080322 0.0008288524 0.00049622485 0.00094228075 0.00027660164 0.0009636268 0.00011689495 0.0008915218 0.00035028975 0.0006410943 -0.00035266904 0.00066337 0.00070738024 -0.00020834582 -0.00018159708 0.00035270955 -0.0006871511 0.0009507373 -0.00095511554 -0.0006347158 0.0002718541 0.00062812376 -0.00052415696 0.0002687981 0.000890753 -0.0006655685 -0.0005956945 -0.00048726972 -0.00035902462 0.0001806363 0.0009455696 0.0006286891 3.8778526e-05 0.000241286 0.0008242667 0.0008915019 0.0005496829 0.00058068975 -0.00074420765 -0.0003737961 -0.00055471994 0.0006036889 -0.00022035639 -0.0008573667 0.00074405514 0.00082028157 -0.0003242417 0.00089029875 -7.210544e-05 -0.0003541523 -3.7567457e-05 1.898699e-05 -0.00034227502 0.0002747306 0.0005595415 0.00067080173 -0.00086947915 -0.00021413364 -0.0005353318 0.0007344824 0.00063493196 -0.0004258518 0.00022722979 -0.0005814122 2.3095286e-05 0.00092399993 -0.00025486737 -0.00050661305 -0.00072238373 -0.00028436934 -8.440565e-05 0.00034451776 0.0009513564 -0.0003309839 0.00018571957 0.00094541104 0.00014956901 9.633752e-05 0.0009572628 0.00090775976 0.0007527409 -0.0006025905 0.0009749986 0.00057119015 0.00088600256 -0.00019484363 0.0003271422 0.00066733954 -0.0003802497 0.0006487159 0.00025027955 0.00090954395 -0.00029646524 -0.00030364934 0.0006069717 -0.0008865474 -0.0007083976 -0.00063476816 -7.315178e-05 -0.0002307638 0.00066557806 0.00090201094 -8.884363e-05 0.00013797113 0.00019730045 -0.00019724597 -0.00078460365 0.000726665 -0.00041971693 0.00044692564 0.00088766636 0.0002971897 0.00030652247 0.00039666297 -0.00026379072 0.00037351262 3.297103e-05 0.0005494836 0.00053685263 0.00017862499 0.0005614655 -0.00087578886 0.00064056227 0.0009009758 -0.00041085423 0.00015698734 -0.00051112124 0.00010334165 0.0002705243 0.00079694693 5.312625e-05 0.00024971273 0.00012673193 0.00082055887 -0.00055739284 -0.00061150687 -0.00035424985 -0.00022466306 0.0004922913 -0.0007930036 -0.00027671247 -0.00080052996 0.0005029014 -0.00025078747 -0.0008854597 0.0003976298 0.000880598 -0.0002966465 -0.0005701699 0.00029491098 -4.2563304e-05 -0.00097455434 0.0008220414 -0.0007166882 -0.00048148504 -0.00025948056 -0.0005324526 0.00016762794 0.000948517 0.00044651097 0.00078990264 -4.594319e-05 6.2980806e-05 -0.00026058126 -0.00085737905 0.00033508823 0.00020443101 -0.00092010293 -0.00048519892 -0.0009505956 -0.0005585734 0.00039692794 0.00084402936 0.00040152832 0.00023324846 0.0007953885 -0.000109297805 -0.00013649545 -0.00085418194 -1.2284378e-05 -0.0002507395 3.770285e-05 0.0007109045 -0.0006876426 -0.00038539793 -0.00065084035 -0.00034610496 -0.00032381166 0.00020870322 0.00032501644 -0.0004841003 -0.0004439737 0.000111200614 0.0005325667 0.00052477047 -0.00028989615 -0.00041665288 -0.0005485007 -5.322101e-05 0.00019007549 0.00014895957 0.0007180205 -0.0002669309 -6.4378837e-06 -0.00053980795 -0.0001142642 -0.00075312145 -9.368453e-05 0.00012789795 -0.0008393305 0.0008543539 -0.0008992057 -0.00093990983 -0.0008312133 0.00071418635 0.0005337469 0.00090326776 0.00025099388 8.266885e-05 -0.00024799223 0.0009138348 0.00026928796 0.00039996568 -0.00011552102 8.8330475e-05 0.00064690504 -7.094734e-05 0.00032631913 -6.562704e-05 0.0005125388 0.0003554623 0.00025220017 -0.0005185442 -0.00045977545 0.0004207053 -0.00057687215 -1.7598271e-05 -6.186683e-05 0.00034113706 -0.00082444004 0.000861058 -0.00014147896 -0.0005205984 0.00039594423 -0.00018901273 -0.0007583479 -0.00043914048 -3.7863967e-05 -0.00087367895 5.571905e-05 0.00023845641 -0.00031496806 0.00025101565 0.0002422654 0.00097541173 0.0001396978 0.00019731815 0.00027144153 -0.00020291714 -0.0008494742 0.00078351307 -0.00019284151 -0.000946515 -0.0006398442 -0.00038533797
a 0.00038616674 0.0004920489 0.000594337 -0.00066115824 6.726931e-05 -0.0002710236 -0.0005087106 0.0006817649 0.00038593425 -0.00030336983 -0.0008082917 -0.0005020299 -6.34311e-05 0.0007628676 0.00059025246 -0.00082535704 -0.000933939 0.0006966636 -0.00022730138 -0.00036057702 0.00056150707 -0.000570733 0.0004974565 -2.3674336e-05 -0.00067140267 -3.238651e-05 0.0006209953 0.0009076112 0.00021688605 0.00049317314 -0.00048579334 -7.7885925e-05 -0.00051930035 0.000116109615 -0.00017511856 -0.0003547495 -0.000684998 0.00094281556 0.00029060815 -0.00022277585 -0.00040860253 0.00075329957 -0.00063299364 0.00030483818 7.689034e-05 0.0008127813 0.0006675954 -0.00028404756 0.00024756836 -0.0001627024 -0.0009233068 -0.0002552208 0.00013012928 0.0006387555 0.0009750589 0.00088500534 -0.0007827501 0.0006339244 -0.0005580798 -9.488035e-05 4.715065e-05 0.00064276694 0.00043653743 0.0004495827 0.00092608633 3.736955e-05 -0.0005897181 -0.00061817386 0.00062810443 -0.00051197084 -0.000278302 0.00039797695 -0.00022365584 -0.0005883997 -0.00022691942 0.00011786318 0.00021321874 0.0005941185 -0.0005091798 0.00030058215 0.00070709724 0.00021436659 0.00052709866 -0.00047317706 0.000600841 -0.00074231264 0.00034110015 -0.0009103324 -0.0002543272 -0.0008860546 -0.00015510432 -0.00052390154 -0.00038514833 0.00011266139 0.00027347147 -0.00014906202 -0.0007979019 -0.0005779319 8.000934e-05 -0.00038537674 -0.00092094217 -7.5681135e-05 0.00064778014 0.0005838715 -0.00096848235 0.00030454912 -0.00058469735 -0.000896669 1.6622362e-05 -3.6095735e-05 -0.0006808593 -0.00061328686 -0.00023692241 0.00069303287 -0.00073690224 0.000751766 -4.6430156e-05 0.00010676694 0.00092604116 0.00046173437 -0.000348903 0.00036480662 0.00034368027 0.0006188181 6.7714136e-06 -0.0004320006 0.00012873742 -0.0005287338 0.00013786694 0.00048107235 0.00050340313 0.0008966443 -0.0007336587 -0.0005276996 0.00063177466 0.00013237097 -0.0006456837 8.63662e-05 0.0002614297 -0.0002469566 -0.00048439065 0.00048874563 0.000939631 -0.0007192064 -1.1261902e-05 -0.00025043543 -0.0006215959 -0.00013463432 -0.000512772 0.0008847652 -0.0005655048 0.00035996828 -2.3191911e-05 0.00041202898 0.00020645955 0.00097615446 6.147276e-05 -0.0005336354 -0.00011520437 0.00020220038 -0.00032940123 -0.0007662858 -0.0005468029 -0.0006591863 0.0006204421 0.00038306217 0.0008022984 0.00063668634 -0.0005984219 0.0002652296 0.000827356 0.00015582587 0.00029963173 0.0005676381 -0.00086321984 0.0008910886 0.00066596514 0.00083109795 -0.00080334593 0.00060308 0.00064737024 -0.00013258227 -0.0006146353 0.0005201836 -0.00066988065 -0.0005198588 0.00034293847 0.00078915746 0.00084889587 -0.00043020654 -0.0008973408 0.0009382514 0.0006142879 -0.0003873374 -0.0008261454 -0.00046077487 -0.000386448 -0.00031967298 7.998943e-05 -2.9019779e-05 -0.00030394306 -0.00058554567 0.00091997266 -0.00046147825 -0.00070918933 0.00075046194 0.0002458687 0.00084242143 -0.0004360465 -0.00067308627 9.618187e-05 -0.000114548486 -0.0009176821 -0.00015655009 0.00029791007 0.00064118963 0.00066848064 0.00031330844 -0.00043391332 -0.00017960614 -0.00038479082 0.0005638589 -0.0006209677 0.00020537293 -0.0001313705 -0.00056765415 -0.00070763787 0.0005715393 -0.0008162309 -6.711425e-05 0.00027611584 0.0007557627 -0.00071268633 0.00032271224 0.0009578611 -0.00068135536 -0.000345201 0.00050131965 0.00051156105 0.00015860493 0.0007784312 8.1209815e-05 0.00018274575 -0.00015676266 -0.000797488 0.0003181449 0.00019202777 -0.0008529497 -6.591866e-05 7.487368e-06 -5.819602e-07 0.000850599 -0.00024499674 -0.0005764314 0.0007307946 -0.00070895825 -0.0008755976 -0.00017476501 -0.00081713253 3.8106227e-05 0.00019001309 -0.00024116051 -0.0006296885 -3.1365198e-05 -0.00010727579 0.00034114858 0.00079365366 0.0005718331 0.00082431524 -0.00087579794 0.00092211785 -0.00023103086 0.0008493215 0.00023287279 0.00035012118 -0.00093571167 -0.0009264115 0.000877336 -0.0002828875 0.00027504086 0.0006268987 -2.9289746e-05 0.00094940397 -0.00010094873 -0.0009446166 -0.00068894995 -0.00010187074 -0.00084715826 0.0007247508 0.00035345054 -0.00085419393 0.0008280979 0.00087203505 0.0005710322 0.00067479035 -0.0009346595 4.8092566e-05 -0.00090045226 -0.00035800948 2.4723588e-05 -2.7383445e-05 0.00014309399 0.00032007264 0.00020770775 0.0005195163 0.0007344234 -0.00057477434 0.0007770816 0.0005851082 0.00095565314 0.0004515486 -0.00032492925 -0.00036586006 -6.143784e-05 -0.00016164046 0.0009641197 0.00010968791 0.00039133348 0.0003338434 -0.00086438505 0.00065631035 0.0007999054 -0.00016267982 0.00022787636 -0.0006327358 -0.0005982183 0.00080234814 -0.00029740424 0.0006582063 0.00015167822 -0.00019351207 0.0002983719 -0.00039268122 -0.00017435849 0.00013483688 0.00047726382 -0.00013722887 6.4114225e-05 -0.0007746534 0.0009272613 -0.0008557178 0.0006904219 0.0003813611 -0.0006834052 -0.0005171072 -0.0007752194 -0.0005010038 0.00069048745 0.00094146666 0.00021041138 6.253959e-05 0.0009301241 -0.00048569986 -0.00012532272 0.00032037473 -0.0006263704 -0.00094742083 -0.0009043197 0.00088092743 0.00052457943 -0.0004676003 -0.0008134416 0.00012636243 0.0002810608 -0.00012160977 0.00012410851 -0.00042200228 0.00046790682 0.00014406105 0.00086697505 -0.0009742689 -0.0005146065 -0.0008889494 -3.3976394e-05 -0.00076731504 0.00049133215 -0.0006246929 -0.0005813318 0.0004952061 -0.0007968524 0.00014210958 -0.0007069864 0.0009631271 0.00084314053 0.00017274928 0.0005652836 0.00044884917 -0.0005851351 0.0009528268 -0.0009455279 0.00078606035 0.00026917772 -0.00029835175 -0.00034783815 0.00088593294 -0.00053133874 0.0007994992 -0.0005868054 0.0008194704 -5.4247444e-05 0.00077564444 -0.0003081027 0.0005839077 0.00085979933 0.00024842168 0.00012868643 0.00049210864 0.0007814963 0.0008367201 0.0008293723 0.0006887233 0.00078150874 0.0008398184 -3.231573e-06 -9.802065e-05 0.00016267493 3.1967647e-07 6.69118e-05 -0.00083993527 -0.0009369855 -0.00022604258 0.00087189453 -0.0003562097 -0.0006814642 0.00047650223 0.000104406034 0.00018076377 0.00035673403 0.00034381577 0.00055919157 0.00012053712 8.24671e-05 0.00088332524 0.0002717009 -0.00045926322 0.0006388854 0.0005091125 0.0002803288 -0.0003064291 0.0003258629 0.00062151346 0.0006915078 9.191071e-05 -0.0008331804 2.517202e-05 3.617385e-05 0.00038505683 -0.0009247031 0.0009480342 -0.00068088644 0.0005626406 -0.00092088594 0.0009422391 0.00071531534 0.00012320862 -0.00033254258 -4.4009765e-05 4.1271793e-05 -0.00062589895 0.0005610506 0.0002315822 0.000368939 -0.0007084978 0.0008326456 4.9634138e-05 -1.9914703e-05 -0.0008858992 0.00039538625 0.00066049176 0.0007182708 -0.0006267114 -0.0007671934 -0.0005394252 -5.88767e-05 -0.0008142559 -0.0008046988 -0.00018726266 0.00011125847 -0.0009283738 -0.00036454434 6.2966836e-05 0.0006650357 0.00016943272 -6.1756116e-05 -0.000730605 -0.0006584077 -6.78153e-05 0.0007292561 0.00053153024 -0.000144794 0.00011448329 -0.00093806407 -0.00013520464 -0.00045177958 0.0005673155 -0.00022832153 -0.0004652408 -0.00092530414 -0.00011721824 -0.0007029072 -0.00016457203 -0.00039744365 -0.00023184915 -0.00031722023 -0.0007965305 -0.00012191513 0.00016513118 -0.00039527775 -0.0007462356 -0.00035025738 -0.0008835092 -7.406494e-05 0.0005745122 -0.00028919394 0.00030876545 0.0004878631 0.0008269949 0.00054896635 0.000928569 -0.00094205874 -0.000777605 -0.00065997615 -0.0007292684 -0.0007776971 -0.0007605634 -0.00028736587 0.00013634376 -0.00028074114 -0.0008609621 0.00048690056 8.797762e-05 0.0004482814 0.0007026697 0.0007469037 -7.857883e-05 0.00035741797 -0.0005003492 0.00018659001 0.00044319034 0.00096549443 -0.00031127827 0.0002772787 -0.0005601904 -0.00021587557 0.00079346634 -0.0003813142 -0.000116072246 -0.0009067358 -0.0009254664 0.0008674577 -0.000556926 0.0004934367 -0.00068003975 -0.00024008902 -0.0007834899 0.00073247345 0.00059838046 0.0005135224 0.0008181501 -6.8020774e-05 -0.00090944616 0.0008902018 -0.00048130238 0.00076640525 0.000540416 -0.00010537857 -0.00074845855 -0.00014255883 0.00061069697 -0.00068028155 0.00014082971 -0.00077654864 0.00085169415 -0.0002788856 0.00092161156 -0.00055742916 -0.0009489965 -0.0008425687 -0.00039793306 0.0004599213 -2.3626839e-05 0.00090073363 0.0003036342 0.0003659929 0.00029261224 0.0007957665 -0.00023405417 0.0007233729 -0.00093131966 0.00028526236 -6.656931e-05 4.416576e-05 0.0006682627 -0.00027753646 -0.00023015426 -9.812182e-06 -4.86027e-05 -0.00034911733 0.0006098128 -0.00064049487 0.0007707031 -9.126961e-06 0.00025476958 0.00031476072 -2.7505215e-05 0.00016663107 -0.00030670455 0.0004644976 2.3731496e-05 -0.00032037066 -0.0008510327 -0.00097637495 3.0544703e-05 -0.00056121196 -0.0001083652 -0.00041075132 -0.0008436353 0.00010372035 0.0005772549 -0.00021591503 -0.00070027506 0.00030795287 -3.756699e-05 -0.00053917407 -0.0001079716 -6.246625e-05 -0.00031084858 -0.0009721755 0.00074595644 0.00036386796 -0.0002469935 0.00071359123 4.4393586e-05 0.0007005031 -0.0001511292 0.0007318035 -4.1632447e-06 -0.0005934923 -0.00046053226 0.00094027584 5.674432e-05 0.00010033208 0.0008252234 -0.000614102 -0.00017225184 -0.0007987226 -0.0006518315 -0.00083793816 0.00038384867 0.00026751426 0.0005483802 0.00025114825 0.00020639796 0.00056007376 -0.0002066805 0.00030979468 0.000824586 3.789761e-05 0.0006147054 -0.0006585516 0.0006421701 0.0004579567 0.00049612776 -0.00096863136 -4.193792e-05 0.0003130969 -0.00056894426 -0.0006536902 0.00062147516 -0.0006663819 -0.0005061035 0.0007931483 -0.0006855759 0.00083450926 6.392796e-05 0.00043024484 -0.0002941836 -0.00053005223 -0.00087378256 -5.9811864e-05 -0.0004982654 -0.00030039402 0.0007921342 -0.0007468662 -0.00061614055 -0.00051403104 -0.0006448965 -0.0008633421 -0.000108402455 0.0009224588 0.0007848181 -0.0005150485 -0.00079467846 -0.00022044871 -0.00090495916 -0.00049489643 -0.0005808405 0.00029542204 -0.0007391643 0.00012212747 0.00022333022 0.00051887846 -0.0001973043 -0.0009542637 0.00050992845 -0.000576806 0.0004771246 0.0001928471 0.0008610762 0.00014954468 -0.00017846317 0.00063366897 -0.000690422 -0.0008192444 0.00037003623 -0.00025165535 -0.00040857808 -0.0001879764 -0.0009643645 2.544315e-05 -0.00010318891 -0.0002901774 0.0002442036 0.00045833935 0.00061939517 -0.00077282684 -0.0004872065 -0.00085815135 -0.00087392924 -0.00036426377 -0.00012438535 -0.00080201495 -0.00052503124 -0.0002101342 0.0006194031 0.0001531844 0.00081198127 -0.0008121297 -0.00044686277 -7.8523764e-05 0.00085939246 0.00010804215 0.00015038846 0.00012605323 0.00028541218 -0.0009175729 0.00031781266 0.00053366064 0.00051624293 0.0004335828 -0.00078968436 -0.00039646262 0.0008153233 -5.5965967e-05 -0.00092156045 0.0004671521 -0.0005903455 0.0006524896 0.00052478304 -0.00049274147 0.00025092077 0.00052896887 -0.00035012746 -0.00014805014 0.00089546596 0.00088507903 -0.0009172817 0.00073899503 0.0009656298 -0.00027736032 0.00024017051 -0.00027376472 0.00084428175 -2.7664355e-05 0.0005504207 0.00089969684 0.0004013913 -0.0006953506 -0.0001880693 9.551027e-05 0.00019864028 0.00028849754 0.000922789 0.000429795 0.0009681543 -0.00084547885 -0.0005619547 0.00019397517 0.00035704812 -9.6794916e-05 -0.0006749657 -0.00031363894 -0.0008327707 0.00091901503 0.0003637144 -0.0007694744 0.0003112274 0.00040760112 -0.0005506821 -0.00057742104 0.000101402984 0.0008751997 -0.00094201963 6.1432365e-07 -0.00067040476 -9.1039925e-05 0.0002969728 -0.0004912077 -0.00027109415 6.597536e-05 -0.00062131067 0.0007115799 0.00042758032 -0.0008357944 -0.0002098605 0.0003090361 -0.0008132416 -0.00069032353 -0.00082556065 -0.00053697184 0.00086485327 0.00069111807 0.00028180797 -0.0008354072 0.0005608626 0.00045248214 1.1618831e-05 -0.00086356816 -0.00018395798 1.863914e-05 -0.0007576116 0.00024122652 4.724285e-05 -0.000689456 -0.00080755947 0.0005900577 -0.0008154776 -0.0005449009 0.00054493407 -4.749524e-05 -0.00029827782 -0.00050726335 -0.00011698704 0.00051481614 -0.000580707 -0.00048605213 -0.00048326398 -0.00046448712 -0.00077930593 -0.0009527798 0.0007404459 0.0007809327 -0.00041839038 -0.0009109435 -0.00018286286 -0.00036213594 0.0008885361 0.00028712326 -0.00058380316 -0.00032795756 -0.0009670394 0.00018985558 -0.0003894891 -0.0002645218 0.00050551665 0.00074209203 0.00042810803 -0.0006660563 0.00065416424 -0.0009406047 -0.00068235234 -0.000781836 -0.00022098934 4.685938e-05 -0.00036838697 0.0001802122 0.0008991392 0.00065215386 -0.000103010214 0.0008879843 0.00015204062 -0.0001927648 -0.0006440381 0.00063221704 -0.00088570337 -0.00018521538 0.0007512107 -0.0002526231 0.00015685475 -0.00071739405 0.00048614072 0.0007200261 -0.0009090371 -0.00032010302 0.00077077525 0.00028650602 1.4201505e-06 3.3526216e-05 -0.0009634207 0.00097038574 -0.0001954434 -0.00047727744 0.0002684805 0.00010058319 -0.0005792568 0.0005656879 -0.00024447904 -0.00060335745 0.00070661225 0.00063119875 0.0008613557 0.00011361274 4.9804803e-05 -0.0007743769 0.0004539925 0.0009141733 -6.637105e-05 -0.00017216499 -0.00037237967 -4.8034824e-05 -0.0007438902 0.0005555904 0.00014559436 0.0009074947 -0.00062738324 -0.00049699517 -0.0006088526 -0.0007106144 0.000269196 0.00047799002 0.00013105175 0.00034577632 -0.00091682374 -0.000104452134 -0.00075614126 0.00028829463 -0.00026231795 0.0008674804 -0.00033538474 0.00066779484 0.00040184276 0.00013324153 -3.951369e-06 0.0007980991 0.00023063843 0.0008064676 0.00032572122 0.0005296008 0.0004982337 -0.0007449982 -0.000565293 0.00012052513 1.8975465e-05 0.00020950555 0.00010406668 0.0007408882 -0.00043180608 3.169896e-05 0.000684232 0.00021990179 0.0004143311 0.00042024197 -0.00012359826 -0.0008127515 0.00029729062 -0.0008665178 -0.0002598496 -0.00091719185 -4.5118737e-05 -0.00076789956 0.0007240211 -0.0004775701 0.000968584 -0.0008820571 -0.0004211109 0.00018837175 -0.00029271783 0.00014118978 -0.00035945745 -8.732139e-05 -0.0005593131 -0.0009590833 0.00061906234 3.7466292e-05 0.00063569495 -0.00072974886 0.00035776861 -0.0009665905 0.00074323546 0.000578569 -0.00059741014 0.00080205663 -0.0005449265 -0.0008353124 0.00014651229 0.00031054323 -0.00079068367 -0.0008724866 0.000895637 0.00016052485 8.538342e-05 0.00024201488 -0.00034249446 0.0001694375 0.00019121903 0.0009576173 -0.000547669 0.00022197526 0.00061593193 -0.0006520832 -0.0008724404 0.0008453338 0.0006677784 -0.00039255607 0.00056077586 7.7003846e-05 -0.00048932456 -0.00013181218 -0.0004783559 0.0005990993 0.00019158842 -0.0008124941 -1.4283229e-05 -0.00025856844
lush 0.0006451686 -0.00011188374 0.00074864284 0.00019026129 -0.0003740742 0.0007966951 0.0002880406 -0.000387699 -0.0005468596 -0.00030168623 -0.0005014229 0.00033594936 -0.00090650725 -0.0005684426 0.0003262913 1.9301777e-05 0.0005854592 -0.00035210734 -5.834736e-07 0.0002416994 0.00053326716 0.00015736208 0.000958603 0.00036310672 -0.0007013846 -0.00013731199 -0.00081720017 -0.000520222 -0.0002143943 -0.0009480127 0.0009077431 0.00019843434 -0.00011339667 -0.0005374714 -0.0008310382 -0.00096713623 0.0008734751 -0.00024408451 0.0004484743 -0.00044114888 0.00097246666 0.00035690633 0.00010016537 -0.000394932 0.000118224765 -0.00025847694 0.0007178455 0.0004373294 9.635568e-05 0.0003401453 0.00036272954 -0.00066263427 0.0008721448 0.0001695538 -0.00056518207 0.0008453792 -0.00012612087 0.0007995154 -0.00014715537 0.00068238785 0.00026624964 -0.0004257548 -0.0003660086 0.000897635 0.00015545567 -0.00058662216 3.4142868e-05 -0.00019164046 0.00015473878 -0.0007536443 0.00072110223 0.00012814708 0.0007690622 0.00043486757 -0.00042908906 0.00036647276 -6.235205e-05 -0.0009625243 0.00080489554 0.0009423216 0.00094271393 -0.00037107465 -0.00082515855 0.0004714555 -0.0007476056 0.0008332082 0.00026955572 0.0005472009 0.00059731386 4.539138e-05 -0.00020457956 7.5505115e-05 0.0009605428 -0.0006957555 -0.00015160686 -0.00023032632 0.00047519605 0.00062988664 -0.0004035195 0.00035387394 -0.00043761008 0.00031938148 0.00079770247 0.00035435625 -0.0004465636 -0.0002938637 0.00076820364 0.00093789655 0.0005680756 -0.00031973002 -0.00017825025 -0.00061107357 -0.0004194897 0.00032952754 -0.00063356897 -0.00064610946 0.0007921308 0.0009282677 0.0007949789 0.00014750334 -0.0008589736 -0.0007419108 0.00015352329 -0.0009304327 -0.00072365324 0.00019766833 -0.0002852704 -0.0008942393 0.0006265071 -0.00087413494 -0.0007173313 -0.00017101015 0.00016582117 -0.00010099809 -0.00050822983 0.000642505 0.0008576964 -0.00072383764 0.0009575748 0.0007193992 -0.00072858646 -0.00018554274 0.0004152381 0.00068941456 -0.0003577819 -0.000680965 0.00046140968 -0.00088267645 -0.00057131867 -0.00012533995 0.00053524587 -0.00055536535 0.0004672642 -4.2475178e-05 0.00026047498 0.0006253837 0.00013844052 0.0007527905 -3.1484524e-05 -0.0008070023 0.0008963378 -0.00047443388 0.00046112365 -0.0003811312 -0.0007157733 -0.0006360009 0.00045677088 -6.43977e-05 0.00014260446 -0.0008719022 -0.000502593 -0.00059125223 0.0008215613 -0.0008493586 0.00049070746 -8.411636e-05 1.8493854e-05 0.00085935136 -0.00035014038 -0.0006774744 7.456832e-05 0.00075613626 0.00089070934 -0.0003598351 0.00026687572 0.0004826769 -0.0005168016 0.0006691929 -0.0006301729 0.00020516047 0.00044797442 0.00042823364 -0.00045569183 0.000258049 0.00071386364 0.0008409852 -0.00092895806 0.0005444089 0.00048516248 -0.00015573809 0.00089715666 -0.00040830183 -0.00017077371 -0.0006702449 -0.00036881596 2.3698783e-05 -0.00031948567 -0.00052902964 0.0006414916 -0.000517857 -0.0006173467 0.0007461882 0.00094249845 0.00039012881 2.570916e-06 7.707928e-05 -9.3901646e-05 0.0006701809 -0.000610644 4.9571274e-05 0.00041915523 -0.00020619272 8.7293214e-05 0.00036231847 0.0009482474 0.00021247659 0.00092775025 -0.00056932063 0.00046881463 -0.00035433378 -0.00041648536 0.00011911697 -0.00040305662 -0.00054952863 0.00030693493 0.00081422436 -0.000639225 -0.00089003344 -0.0003253679 0.0007350816 -0.000946193 0.0009373318 -4.0844432e-05 0.00022507855 -0.00018063094 -0.0005627059 0.0003028023 0.0006049891 -0.0006887603 -0.000114581664 0.00015228719 0.00041493867 0.0006973974 -0.000346357 0.00071048713 -0.0005440401 -0.00021433842 0.0008871838 0.0005256175 -0.0008286189 -0.000161684 -0.0008631075 -0.00016033975 0.0005523064 -0.0007244431 0.0005380927 0.00059473235 -0.00036821084 -0.0009429506 -0.00024597824 -0.00024931866 0.0003670446 0.00087116065 0.00019491231 -0.00020620471 0.00028999674 -0.00066442566 -0.00012630376 -0.00014484709 0.0009379751 -0.0005673402 -0.0006875236 0.00023058092 0.00025730173 -0.00069784885 -0.00057399936 -0.00011552952 -0.00032254145 -0.0008765361 -0.00039546087 -0.00028962444 0.0006350259 9.510713e-05 0.0001561339 2.718158e-05 -0.00033048226 0.00030296575 6.949855e-05 0.0005842615 -7.5705e-05 -0.00086926424 8.620659e-05 0.000969123 -0.0005126145 -0.0005094205 -0.00024597172 0.00083822745 -8.121529e-05 0.0009197624 -0.00081407325 0.0008805705 -0.00094854704 0.0008983945 0.00018288218 0.00025980943 -0.00057212904 0.0008241392 0.0005901983 -0.0005358533 -0.00092761905 0.000680508 -0.0005406182 -0.0009102854 0.00025364815 -0.00048613385 -0.00071875495 0.00095024984 -0.00015486567 -0.00014755991 -0.0003939945 -0.00042957545 -0.00045208842 -0.00054645643 -0.00051775423 -0.00078342797 0.0009295747 0.0006249087 -0.0003522162 0.00024203537 -0.00074633735 0.0007346779 0.0008110093 7.709279e-05 -0.00066728424 -0.00028884062 0.00046230166 -0.00028704922 0.00031020248 0.0009188199 0.000425108 -0.0005024882 0.0005338958 -0.00028117106 -0.00062440825 0.0006843556 -0.00090370444 -0.00011041574 -0.00013528718 -0.0008218698 -0.00010765623 0.0005466072 -0.00051441917 -0.0006861461 0.00060549495 -0.00033461326 -0.0007636285 2.8649461e-05 -4.863483e-06 0.00073641667 5.5595883e-05 0.0007697714 -0.0009582795 0.00039387378 0.00060723734 0.000100531615 -0.00027699326 0.00010025536 -8.194544e-05 -0.00079182314 -0.00066244847 0.00011720264 -0.00019705796 0.0009325604 -9.271747e-05 0.0005975289 0.00019981817 0.0007909853 -0.00090727734 0.00023366499 -0.00014172436 0.00021044922 -2.1464773e-05 -0.0006484991 0.0008838336 -0.00027767557 0.00018694473 -0.0006290721 0.00036271662 0.00097615283 -0.00011682173 0.0006425994 -1.2140721e-05 0.0007742365 0.00094247365 -3.8211583e-05 -0.00016585388 -0.00092984526 0.0009643431 -0.00024735997 0.00021378824 -0.00016590685 0.0008132176 0.00081482204 0.00015008647 0.0002818033 0.00062832667 0.00021950202 0.0006293277 1.4330144e-05 -0.00022319052 0.0005182865 -0.0003335229 -0.0002554307 0.0008585673 -0.000894013 -0.00033336354 -0.00028555933 0.0005536064 0.0007757321 -0.0006300397 0.0005658722 -2.1257089e-05 -0.0008820178 -0.00023854186 -0.00015471992 -0.00043758017 -7.75177e-05 -0.0005115658 0.0005801362 0.0009085332 -0.00015504542 0.00032976002 -7.30484e-05 -6.8323454e-05 -0.0006846251 0.00014227582 0.00038112234 0.0006748118 0.00063855865 0.00034537143 0.0004552413 -0.000725792 -0.00013540033 -0.00056471117 0.0006641648 0.0007643206 -0.0004173849 0.00011266186 0.00049896527 0.00017670752 7.6749595e-05 -0.00065821875 0.00096022256 -0.00070895534 -0.0005892338 -0.0005533283 -0.00061991834 -0.0003409239 -0.00091799756 0.0001150521 -0.00036623387 -0.00024914916 0.0005649356 0.00034672674 0.00017782405 -0.00013418461 0.00096459745 2.798438e-05 0.0004897906 0.00088259275 -0.00095376745 -0.00089407933 0.0009690261 0.00026726443 -0.00018413877 0.00046133436 -0.00042142614 -0.00062476937 -0.0008063874 0.0007041133 -0.00023919647 -0.0007366374 -0.0005771861 0.0006030784 -0.00024215726 -0.00060017477 -0.00015800598 -0.00014390156 -0.00031785585 -0.00020402716 0.00040095055 0.00014126953 -0.0003408537 0.00026292715 0.0005106389 -0.0008975401 -0.0007381189 0.00061487965 -0.0008728618 5.1584328e-05 -0.0008783026 0.00081736606 -0.00041929074 -0.000646533 -0.00013513386 -0.00010875729 0.00073564705 0.000889602 -3.4255092e-05 0.00026304473 0.0004626169 1.3940851e-05 -0.0005644533 -5.8048754e-05 0.00021318113 0.0008107142 -0.00035081303 -0.00096147903 0.0005256764 0.00095807516 -0.00068894285 -5.6885416e-05 -0.0004945834 0.0006284205 0.000943096 -3.2525626e-05 0.0005019966 0.00063854305 0.00043057057 -0.00078430015 0.00030299253 -0.00014515489 -0.00021104293 0.0005275472 -0.00012861914 0.00096947944 -6.24198e-05 2.5745016e-05 -0.0002239882 -0.00083139597 -0.0009581202 0.00048347318 -0.0006465659 0.0002895993 0.00027093582 -0.0006842561 -0.0003062517 -0.0005671447 -0.0008363824 3.727153e-06 0.0009557671 -0.00065194163 -0.00042596227 0.0008135085 0.0009080579 0.0009585357 -0.0009660466 0.0004929643 -0.0006486417 0.00067185983 0.0005996971 -0.0003296492 0.0006722789 -0.00076820236 0.0004442935 0.0004473019 0.0005784455 0.00057417015 -0.00026009255 0.0003804299 -0.00059653586 -0.00063075894 0.0002678727 -0.0009244324 -2.9208139e-05 0.00010655634 0.0007816857 -0.00068374875 -0.00022685097 -0.0004009899 -0.0005105409 -4.6082772e-05 0.0004503139 -0.000486515 -0.00016070867 0.0008453495 -0.00012777699 -0.0003488101 0.0007257457 0.000119062955 -3.324938e-05 0.0009238061 0.0007935163 0.00033377483 0.00032795453 -0.00022311648 0.0007904805 0.00049422716 -0.0005298578 -0.0005985487 -5.853048e-05 -0.000773482 0.00032878027 -0.0009008221 -0.00015083665 0.0003277514 0.00029744382 0.00030857045 -0.00088512374 0.00033390452 0.0005221033 0.0003386651 0.000761027 0.00016167469 0.0006123261 0.0008628041 -9.205635e-05 -7.8441575e-05 0.00021748175 -0.0007356929 0.0005496441 -0.00048829254 -0.00031944213 -0.00017896655 0.0008023698 0.0002193756 -8.8637345e-05 -0.00027785893 -0.00020624488 -0.00012556661 -0.00049637887 -0.00040315744 1.8305145e-05 0.00044479186 0.00017540471 0.0006740901 6.247219e-05 -0.00031487586 -0.00072005007 0.0005866217 0.00068065757 -0.0005916314 0.0004574207 0.00092759205 -0.0006231137 -0.0002809515 -0.0008877247 0.00031524524 -0.00033596286 0.00019963004 0.00092182425 -0.0008161067 -0.0009094775 0.0001676447 -0.00078461075 -0.0008854987 -0.0009135958 -2.816401e-05 -0.00010758825 7.263338e-05 -0.00013084209 0.00088280777 0.00085817685 -0.00062083255 0.0008492038 -0.0008816512 -0.00013070588 0.00024803088 -1.0758638e-05 -0.00037117663 4.5784167e-05 9.819656e-05 -0.00091884483 -0.00047752773 -0.00075301365 0.00037178642 -8.641591e-05 -0.0007308187 0.00055035704 2.3216591e-05 0.00026346545 0.0005303556 -0.00041311362 0.0007661078 -0.0007673538 -0.00033622666 -0.0007193859 9.51197e-05 -0.0007217064 0.0008850283 0.00054045627 -0.00070616114 0.0006029712 0.0006449495 -0.00072414894 0.00045456935 -0.00075405254 0.0009102217 0.00045804784 -2.2368273e-05 -0.0008732185 -8.736574e-05 -2.6464812e-05 8.854491e-05 0.00084592425 -0.00027110998 -0.00084785325 -0.0008626699 -0.00010327611 0.00013397122 8.51904e-06 -0.00021513063 0.00083472324 1.0393909e-05 0.0006268234 0.00038974884 -0.0007034363 -0.00020738645 -0.000759413 -0.0006599246 -0.00030800526 0.0006460154 -8.146744e-05 0.00086759345 -0.00022380706 -0.0005179994 0.00038235402 0.00021645252 -2.7381117e-05 -0.0002395392 -0.00058618514 0.00039430358 -0.0007433173 -0.00086977927 -0.0008946804 0.00081914733 0.00039068202 0.00069259433 0.00096582994 -0.0007056482 0.0003934087 0.00027550163 0.0006010531 -0.0003308548 0.00091119274 -0.00056635006 0.0006867392 0.00067868596 -3.8277823e-05 0.00049413904 0.00064889167 0.00015073677 0.0007195822 0.00023522216 -0.00014851266 0.0007221096 0.00045774877 -0.0003097891 0.00016075326 -1.3670651e-05 0.0004846931 -0.0005285579 -0.0004086534 -9.1596856e-05 0.0003732309 -0.0006427298 0.000766175 -0.00030154677 0.0005605449 0.0002796912 0.0006662583 -0.00043615873 -0.00031270052 0.00029855885 -0.00027097808 0.0005803247 -0.0005814674 0.00025309075 -7.0582726e-05 -5.9987302e-05 0.00024790165 -0.00021340803 -0.00041577348 -0.0008352144 0.00024299615 0.00051999104 -0.00057297 0.0008895616 0.00039418298 -0.0005054127 -0.00012824498 0.00038343493 -0.000684122 0.00020071561 0.00053775054 0.00061082374 0.0005299407 0.00035742437 -0.0002687584 -0.0005936035 0.0007968673 -0.0007130513 -0.00015821029 -0.00031872687 0.0006336635 -0.0006130306 0.0003315925 0.00019995356 -0.00039834145 -0.00080495025 -0.00078493415 0.0003423487 -0.0009337184 0.0005573045 -0.00028441683 -0.0008958067 -0.000501574 0.0007562764 -0.00016810664 0.0006255992 -0.0009059118 -0.000893216 -0.0005080252 9.299209e-05 -0.00070074364 -0.00092246337 -0.00086774107 -4.5216177e-05 0.0007239757 -0.0008182215 -0.0005208027 0.00014819368 0.0003241537 -0.0008259928 0.000768336 -0.0008023804 0.0004625296 0.0009194638 0.00055275136 0.0006028187 0.0008043585 0.0003371985 -0.000697701 0.0005612371 -0.0008118106 -0.0005589711 0.00057672616 -0.0007743557 -0.0005732792 -0.00034749648 0.0003313535 0.000509736 0.00020071049 0.00049888203 -0.00025655015 0.00042499835 -0.00068832 -0.00016213325 -0.0007563282 1.6973238e-05 0.00045880454 0.00046875305 -0.00045461627 0.00017094461 0.0007628151 -0.00054431823 -0.00036989793 -5.835353e-05 -0.0004609141 0.00084930274 0.000736536 0.00090052874 0.00091434433 -0.0008252772 -4.68496e-05 -0.00074281066 -0.0004697038 -0.00086325256 0.0003335717 1.0395423e-05 -0.0006753594 0.0007776449 9.3064504e-05 2.9157382e-05 -0.0003480533 -0.00032681704 -0.0002580505 0.00074435305 0.00023384695 -0.0005049737 0.00046190817 9.672821e-05 -0.00026690902 0.00075287593 -0.00038547255 0.0007257344 -0.00041166355 -0.00071840454 -0.00043911464 -0.00038071268 -6.878935e-05 -0.00018012791 0.00049914233 0.00053228205 -0.00016980816 0.0003646185 -0.00019809231 7.173885e-05 -0.00013344118 -0.00024051021 -0.00046062726 -0.00041619013 1.2404518e-05 0.00016107899 -0.00092272554 0.0005933943 -0.00016412279 -0.0002904667 -0.00046817132 -0.00042153802 -0.00046880846 -0.00095741905 -7.591932e-05 -0.0007609753 -0.0004699243 -0.00072021293 0.00097028154 -0.0001324116 -0.00075725024 0.00053873926 -0.00078773 -0.00018674659 0.00026713533 -0.00069132284 -0.00085288344 -0.0006485911 0.00072933035 0.0008845407 0.0003897947 0.00023473473 0.000404087 -0.0003975029 0.00095293333 0.0006727852 0.0004017318 0.0008739149 -0.00081970345 9.121944e-05 0.00086837984 -9.1712456e-05 -0.0006579957 -0.00022156071 -0.00027230626 -0.0002439674 -0.00018009602 0.0007111981 -2.9342715e-05 0.00041429081 -0.00036636041 0.0008039428 -0.0006349762 -0.00091194117 -0.00040424673 -0.0007193163 -0.00047623191 4.8320042e-05 0.00023289572 0.00016990898 0.0004890214 -0.00013629347 0.00022287108 3.4320634e-05 0.00076615263 0.00078386604 -0.00019272382 0.00012279616 -0.00058905385 -0.00046470575 -0.00068074453 -3.0943193e-07 -0.00047995115 -0.0003951462 0.00014694373 0.00025488355 -0.0008904503 0.00017064554 0.00050099706 0.00040630507 -0.00028388284 0.00092583976 0.00092278083 -2.6532216e-06 8.352508e-05 -0.00090315146 -0.00046922953 -9.912183e-06 0.00039487216 1.5473925e-05 -0.00085201534 0.00056785846 -0.0007241287 0.00083533 0.0005387096 -0.00066166464 0.00027758663 0.00075373845 -0.0005965857 -0.000639347 0.0008983434 0.00017624919 0.00094828603 -0.00096744497 -0.00014662207 0.0006738114
arbor -0.00014288886 -0.00017154065 -0.0006913099 -0.0005532978 -0.0006368271 0.0008714127 -0.00015475403 -0.00080893503 0.0007828083 -0.00028914935 -0.00013007864 -6.599678e-05 0.00027605623 -0.00046062307 -2.5177374e-05 -0.00027788233 0.0008570254 0.00067176763 0.0001073773 -0.0005924115 0.0003059191 0.00011098513 -0.00059808395 -0.00056175 -0.00030240067 0.00023305684 -0.00079248205 -0.00048748462 0.0007908717 -0.00036057702 0.0007771413 5.2324962e-05 -0.00054046605 -0.0004847753 -2.1013897e-05 0.00044850376 -0.0005940895 -0.00053791015 -0.0006651358 0.000658834 -0.00023474323 0.00039219263 -0.00015882705 -0.0007241672 -0.00012386125 3.936561e-05 0.00035023363 -0.0008472663 -0.0006645862 -0.0006403234 0.0002922156 -0.00036544504 9.932974e-05 0.00040596176 0.00044129184 0.00023101736 -0.0002805742 6.256311e-05 -0.0005265303 -0.00062038354 0.00085114525 -0.00039557402 -0.0009099605 0.00036437612 0.00082560244 -1.8386752e-05 0.00022116606 -0.0003464059 -0.0004094144 -0.0008417808 -0.0007668949 -0.0008866439 -0.0005830665 0.00082889607 0.0009215489 -0.00016398751 1.4918623e-06 0.00076688046 0.00012329652 -0.00050246797 0.00025664573 0.00017634628 -0.00036390475 -0.0004775537 0.0009417697 0.000746947 -0.0008369279 -0.00053956406 0.00013880967 8.9364825e-05 -0.00081552775 0.0009109541 -0.0005255663 0.0004493466 0.00090147555 0.00010647392 0.00041216647 -0.00026518526 -0.0009455418 5.8581005e-05 -0.0001058483 -0.00096881925 0.00068414235 -0.0007212879 0.00050008355 -0.00043144717 -0.000897566 -0.00088508124 0.0006087597 -0.0005112635 0.00051297527 -0.00015411014 0.00094732095 0.0006995414 0.00096589397 0.00081844 -0.00076811353 -0.0009362367 -0.0005440222 -7.832388e-05 0.00048908056 0.00035838108 -0.00019777601 0.00049285765 -0.0003319868 -0.0006654082 0.00046001282 -0.0009624285 8.690066e-05 -0.0004894906 0.0007416882 -0.00036289054 0.00027509604 -0.0006110101 0.0009389863 -0.00054593675 0.00034857937 0.00031640683 0.00087222294 -0.0005434983 -0.0004271065 -0.00060772104 0.00060057023 -0.00044757046 0.00046984782 -8.7113585e-05 0.0007102273 -0.00058948563 -9.588548e-06 -8.558389e-06 -0.00083424314 0.00085345504 -0.00020552636 0.0006284419 8.932897e-06 0.00049093796 0.00021617638 0.00086424 -0.000813438 0.0008235725 0.0008446487 0.00010358973 0.00043195637 0.00037446432 0.0003960738 -0.00028773688 0.0002777892 7.485575e-05 0.00047131884 0.0008215917 -0.0007564565 1.4882535e-05 -0.00085275574 -0.00015377556 -0.0008820564 0.00030887162 -0.00015404646 -6.822462e-05 0.00062764506 -0.0007908689 0.00011226314 -0.00023644487 -0.00036431034 -0.00071122474 -0.00077886716 0.00080981187 -0.0007263522 0.0004704732 -0.00036980445 -0.0001185342 0.00027434062 -0.0008383264 -0.0005522559 -0.0007558048 -0.0009189977 -0.00046403205 -0.0003086233 4.7432957e-05 -6.810704e-05 -0.0007691871 -0.00036985532 -0.00026780565 -0.00062350475 -0.00062287715 -0.00025468075 -0.0007733018 -0.000806615 -0.0007407899 0.00034707785 -0.00074106 -0.000362379 0.00064733205 0.00072261377 -0.0006247972 0.00066389656 -0.00075889425 1.2871926e-05 0.0006461481 -0.00027732097 0.0009004121 -3.1694886e-05 0.00045747613 0.00067894545 -0.0008340579 -0.00059281546 -0.00071244617 -0.00011435081 -0.00069233635 1.067156e-05 -0.0007855111 4.9849972e-05 -3.7997495e-05 0.0006320528 -0.00086734816 -0.00030990737 0.00057601125 0.0009017963 -0.0001743338 7.590314e-05 -0.00059516693 8.018769e-05 -0.00079487066 -0.00074595807 0.00013505155 -7.9531455e-06 0.0005431293 -0.00095084356 0.00016163569 0.00015381665 -0.00051246036 6.946153e-06 0.00059160707 -0.000644519 2.823968e-05 0.00038038671 0.00016654853 0.00027934532 0.00079635077 0.0006533429 0.00034238794 0.0007788871 -0.0007487127 0.0007356821 0.0003798355 -0.0005762804 -0.00040938682 0.0006244028 0.0005664241 -0.0009629297 0.000121871475 -3.9121718e-05 7.9461606e-05 0.0006911955 -0.00070048077 0.00094151637 -0.0009235897 0.0006073826 0.0009273763 -0.00037359574 -0.0009172696 0.00060391496 -0.0008753771 -0.0008100837 -8.101843e-05 -0.00064887153 0.00085427146 0.0007667546 8.093717e-05 0.0007814487 0.0009613964 0.00050681655 0.00042175956 0.00052516256 0.0006263071 0.00046178082 0.00062365143 -0.00072751543 0.0008652465 0.0008088385 0.00091587193 -0.0008806464 -0.00033662224 -3.342307e-05 0.00040692545 -0.0008024388 1.6415259e-05 0.0005884201 0.0009350827 -0.00027754693 0.00017831882 0.0006176181 -0.00019525364 0.00019106525 -0.0009106337 6.9380156e-05 0.00044716313 0.00043927773 -0.00095182203 -0.00050286646 0.00029011222 0.00015543448 -0.00045900862 0.00056828884 0.00034294592 -0.00076414377 0.00096058566 -0.0007535933 -0.00029590586 0.0009514502 0.00011167838 -0.00054151437 0.00011002179 -0.00039955403 -0.0006584489 -0.0007576472 0.00046466396 -0.0008821166 0.00039661396 -0.0005396352 0.0005300668 -0.00042631908 -0.00054528494 0.00062023813 -0.0008442686 0.00013017398 -0.00020756584 -0.0006529242 -0.00074758555 0.0006598729 -0.0004360095 0.00044784183 -0.0009434187 0.00018625963 -0.00019092008 -0.00057598646 -0.0002721144 -0.0008454154 -0.0003393935 -0.00025176816 -0.00022351602 -0.00049869437 -0.00089795573 0.00052183657 -0.0001270005 0.00060288934 0.00030022382 0.00083488633 -0.00034333905 -0.00086863607 0.00013019715 -0.00087768247 0.0005901146 0.0008244701 4.902843e-05 0.0007521964 0.00083371473 0.0004102257 0.0005288059 0.00089146395 0.0001120246 -0.00080575736 -0.00081306614 -0.00017410028 -6.1120954e-05 0.0008614573 -0.00090925547 -0.00025321334 0.0008899536 -0.00014084391 -0.0008864156 0.00019675365 -0.00057022995 -0.0005353987 -0.0006193584 1.2312084e-05 0.00070557627 0.00040227675 0.00079623295 0.0008640393 0.00044150394 -0.00059093675 0.00069030456 -0.00093040254 -0.0004678981 0.0007812844 0.00077222555 -0.0005294791 -0.00077902083 0.0007886111 -0.0003722778 -0.00039701082 0.0007016028 0.0005296705 0.00037282635 -0.00012008264 0.0008465827 0.00082540594 0.0006810335 0.00088539056 -0.0005642619 9.7528915e-05 -0.00015925325 0.0006191344 0.00095490227 0.00050464156 0.00039646134 0.0006379181 0.0005740343 9.994721e-06 -0.00081477524 -0.00021193828 0.0008862332 -0.0004960897 9.852578e-05 0.00047604507 -0.0006765635 0.00079989 0.0001438912 0.00023708493 0.0008113036 0.00014224858 8.6880056e-05 -0.000920326 0.0009631275 -0.0009634814 0.0008350229 0.0004934225 -5.5237906e-06 -0.0007688786 0.0009122713 -0.00013457402 0.0005221317 -0.0002958763 -0.0004789906 1.6014907e-05 -0.00078419887 -0.0006485536 -0.0009233741 0.00052245276 4.1895313e-05 -8.943223e-05 0.0004979705 -0.00019241602 -0.00072116824 0.00028012507 -0.00058218907 4.7763344e-05 0.0009254408 -9.3222596e-05 0.000599619 0.0004358549 -0.00034518447 -0.0005103868 0.0008645825 0.0002055493 -4.4181128e-05 8.7441294e-05 -0.00048059796 0.0003454216 -0.00030271814 0.00041151198 -0.0004449786 -7.743377e-05 0.00038106088 -0.0006981711 -0.00024636323 -0.00085173966 0.00015197578 0.00019635726 0.00023508992 0.00010553619 8.809264e-06 0.00021610828 -9.240268e-05 0.0005782823 -0.00028852245 -0.00049657084 -0.00052028126 -0.00094422733 -0.0007922774 0.00020683394 0.0003891111 -0.0005640384 -0.00094548124 -0.0006011127 0.00045589765 -0.0008858326 0.000496152 0.0006202962 0.00059774285 -0.00074518775 0.00027664658 -0.0005325115 0.0008835065 -0.0004211613 -0.0002296064 0.0005098813 -8.040946e-05 0.0004973399 -0.00041210838 0.00048643595 -0.00095654465 0.0005932555 -0.00012142444 -0.0005475625 -1.9739382e-06 -0.000119491946 -7.050822e-05 -0.00017204671 -0.0009055856 -0.00076203083 -0.00066407607 -0.0008425951 -0.0004430646 0.00089727493 -0.00017696561 -0.00074187806 -0.00057557365 0.00035207474 -0.00026530807 -0.00015222328 -0.00041541702 0.0005822171 -0.000764854 -0.0007322064 0.00073494064 -0.0006797416 0.00021062081 3.612868e-05 0.00094410905 0.00041412807 0.00020186591 0.00026909425 0.00022495002 0.00021482934 -0.00026583427 0.00039952993 0.000595724 0.00087280315 -7.308973e-05 -0.000119357486 0.0006315346 -0.00082665216 -6.4086285e-05 -0.0006516841 0.00046711985 -0.00087375403 0.00031736365 0.000879369 -0.00020190363 -0.0008623041 -0.0007986948 0.0003169987 -0.00052208814 0.00062965404 -0.00011610065 0.0007669602 -4.9127964e-05 -0.0006070889 -0.00055678445 7.5093936e-05 -0.00046656432 0.00064076576 -0.00034361985 -0.0005494915 9.310711e-05 -0.0004755417 -0.0008019316 -0.00051248644 -0.00018180802 4.2569125e-05 0.0003553169 0.0006707903 0.00065702794 0.0005723984 3.1278236e-05 -0.00056850526 0.00087886595 -6.374915e-05 0.0004599645 -0.0001391035 0.0005662275 0.0005178744 -0.0007126243 -0.00026783487 1.0637916e-05 0.0001986872 -0.0009071956 0.0004725731 0.00032930844 -1.6985345e-05 -0.00034153636 -0.0007426429 0.0007418023 -0.0008401548 -0.0007211127 0.00043473218 -0.00083119434 -0.00032071734 -0.00020415592 -0.0001858183 -0.0006675088 0.0004195826 9.75451e-05 0.00035708898 -0.0001297195 0.00067724823 -0.0009310143 0.0005709196 -0.0005011173 0.00016633619 -0.0006778379 -0.00024230708 -0.000627817 -0.00032724522 0.0009501494 0.00026266766 0.00015677139 -0.0005941241 0.0005442357 -0.00079381024 -0.00022397202 -0.0006316807 -0.00062326726 0.00022431882 -0.00032096787 0.00023731252 0.00038246473 -0.0006123062 -0.00017040072 -0.0002697747 -0.0009566711 -0.00096080033 0.00010839931 0.00042781956 2.2704131e-05 -0.0004757808 0.0003542758 0.00016490486 -0.00092203217 0.00070199615 0.00075909693 -0.0007550353 -7.46568e-05 0.0005889953 -0.00027152966 -3.2921904e-05 -0.0004120936 0.0005971318 0.0006831599 0.00020373508 -0.0004589411 -0.00017872185 -0.00039050658 -0.0009538025 0.0007627922 -5.9786602e-05 -5.8990438e-05 0.0006918566 -0.00088244374 0.00061780994 -0.0007388126 -0.0005232623 0.0004956634 -0.00034127152 -0.00034052646 -0.00061602436 -0.0003818256 -0.00025982282 -0.00039990037 0.0009232414 0.00092328293 -3.726338e-05 -2.7772505e-05 -0.000550959 0.0007732018 -0.0004828656 0.0005752372 0.00088993704 0.00056197937 -9.259267e-05 0.00054109935 0.00067822344 -0.0003789831 6.5302476e-05 0.00063367025 0.0005732429 -1.7321901e-05 0.00023243157 -0.0006361202 -0.0009140972 -0.00048316573 -0.00052616105 5.7326746e-05 -0.00038752274 -3.609259e-05 0.0007455618 0.00095075066 0.000769129 0.00023332203 -0.00026497373 0.00023747259 -0.00026268722 -0.0008740376 0.00067314855 -0.00084458396 0.0003698906 -0.00038635102 -0.00054131425 -0.000101912185 -0.00064091606 0.00083829195 -0.0006716732 -0.00087505335 0.00056311116 0.00043593824 0.00046205625 0.000237006 -0.00036381907 -0.0004997364 0.00017306197 0.0008150942 -0.0005519801 -0.00023266044 0.00018050394 0.00065646414 -0.00062474585 -0.00044216344 -0.00025767286 0.00013035454 0.0005245389 0.0005419309 -0.00085053744 0.00071021577 -0.00024435786 -0.00027760153 -0.0008650933 -0.00056397286 0.0009227155 0.00030151661 -0.00078542647 0.0002741603 -0.0006906991 -0.0008845591 0.000377518 0.0001989227 0.00012252433 0.000863899 0.0006113966 -0.00049517874 0.00026638957 0.0002485452 0.00023416267 0.000813775 -0.0006751383 -0.00022455386 9.85302e-05 0.0006228278 -6.335287e-05 0.00077423034 -0.00045428867 -0.0008819726 -0.00068887684 -0.00040407176 0.00093586906 -0.0005007095 -0.00047347276 0.00079819164 -0.00072814303 0.00019626564 0.0005582074 -0.0007353844 -2.5681336e-05 -0.00023126847 0.0005435179 -0.0004453567 -0.00064499886 0.0009659901 -0.00045147934 0.0007426038 -0.0008256604 0.0006852875 -0.00033103197 -0.00076316996 -0.000114353956 -0.00023148465 -0.00017759332 -0.00011497608 -0.0006364366 -0.00034618028 -0.00031223998 0.0007541303 0.00057294057 -8.73293e-05 -0.0004703675 0.00051682664 -0.0008630502 0.00016108295 0.00039169937 -0.00019020459 -0.00044182863 -0.00080348575 -0.0008093178 0.00069603336 0.0003551857 -3.7736143e-05 0.0009483149 -0.0008343883 5.754619e-05 -4.338834e-05 -0.0007881315 -0.000888656 0.0007020276 -0.00035477476 -0.00077158655 0.00077662873 -0.00061076926 -0.0003048688 0.0001734005 -0.00032728643 -0.0007778044 -0.00038293633 -0.0008802853 0.00013649976 -0.0004520216 -1.961249e-06 0.0002660302 -0.00023174507 0.00086114916 0.0006877484 -5.3797732e-05 -6.2012696e-05 8.304173e-05 0.0006592119 0.0008738658 -0.00018828106 -0.00015552295 -0.00029023096 4.912552e-05 -0.0006323219 -0.00018237066 -0.00084454066 6.426172e-05 0.00014005904 0.0003640477 -0.00028066 0.00057915726 -0.0006911955 0.00095866236 5.2060466e-05 0.00022417144 0.00042541383 4.095328e-05 0.00025348552 0.00015768036 -0.0009391558 -0.00030736765 -0.00025337655 -0.0009045723 0.00033548055 0.00046873023 -0.00020327314 0.0007243772 -0.000118243974 -2.7213362e-05 0.000564691 -0.0008274665 -0.00067488814 0.00071789173 -0.0006428058 0.00082694774 0.0005224609 -0.0007857728 0.0008204208 0.0006170152 -0.0006557427 -0.0008264382 -0.00086275954 0.0003741422 0.0006188281 -0.00020846887 0.00013098982 -0.00081968924 -0.00049993896 0.00045939814 -0.0008851413 -0.00090207113 9.8448945e-05 -0.0008383681 -0.0006775295 0.00046416896 0.00078179257 -0.00071866985 0.00079161173 0.00091595366 0.00046014634 -0.00043039687 0.00094436016 -0.0007546119 -0.00037995726 0.00018886628 -0.00074526516 -0.00096423086 0.000279697 0.0007989346 -0.00049935514 -0.00041904277 0.00038177322 6.76387e-05 -0.0008334931 0.0006400142 -0.00030777673 0.00034990872 0.0003078772 0.00086698215 0.0008533811 0.00071400777 -0.00080933364 0.00011804316 -9.415683e-05 8.565688e-05 0.0008714256 0.0004657855 -0.0008715276 0.0009581854 -8.70307e-05 3.891578e-05 0.0004840003 -0.0006069287 -3.953546e-05 0.00013435201 0.0006885991 0.00041806104 -0.00018936046 -0.00082689594 -0.00037880463 0.0008573297 -0.000926869 0.0009616078 -1.5016412e-05 -0.00011039141 0.00093791366 0.00093482377 0.0008077532 0.0008788173 -0.00097506214 0.00073289045 -0.00091429846 -0.00075318303 -0.00086212123 0.0002107016 0.00070138543 -0.00061572716 -0.00026506872 -0.00023023412 -0.0004372819 -0.00012812635 0.00047421933 0.00036256388 -0.00031642662 -0.00036255387 -0.0002285312 -0.00031528343 0.00038599013 0.00095140666 0.0007669979 -0.00073824835 -0.00062975776 -0.0008917904 -0.0005791116 0.00035500946 -0.0005878187 0.00016555958 0.0008678265 0.0003257778 0.00011629728 0.0008713652 0.000626302 -0.00014057662 -0.000606555 -0.000103177736 0.00071052706 0.0007305207 -0.00039384654 0.00097075803 0.00023455883 0.000500791 -0.0005536099 0.0004276398 2.5068875e-05 -0.0009364771 0.00049492274 -0.0008798229 -0.00063177384 0.00027215213 0.00090652355 -0.00020702311 0.00068153755 0.00049492833 0.00039728847 -0.00060484954 0.00049558503 -0.0008113171 -0.00042157446
overlooking 0.00053197704 -0.00079558603 0.0005595358 -0.00034106977 2.6018824e-06 -0.0007176639 -0.00060968334 -0.00032333832 0.00084015366 0.0005221423 -0.00094701466 -0.0006419042 0.00033492642 -0.00083175325 0.0006498757 0.000601045 -0.0009086145 0.00084478315 0.00076576346 -0.00017510785 0.00017400784 -0.0005561948 0.000607235 0.00075214903 0.00039514143 -0.0008653813 0.0004829734 -0.00029888586 -0.0002155389 0.00059622654 0.00018020498 0.00045186735 -0.000613092 0.0005115733 -0.00034561683 -3.7461636e-05 0.0006076002 0.00039814424 0.00072966935 -0.00038256368 0.0003465059 0.00071375235 -0.0003209404 0.0005623769 -0.00091920793 0.0008635351 0.00036653935 0.00051866553 0.00045394618 0.00044599164 -0.0003231631 -0.00060647447 -0.00022290368 0.00013528892 -0.00028728857 -0.00082856684 -0.0006141545 0.00081460446 0.0009122797 0.00058211584 -0.00040071295 6.784848e-05 -0.00083752023 0.00065010006 4.5685447e-05 0.00072037 -0.0005247146 -0.0002780446 0.0002791963 0.00033787196 -0.0006391705 -0.00071936136 0.00019842247 -0.00087994337 0.00056528684 0.00053412374 -0.00037284615 -0.00055088976 -0.0008131447 -0.00018521782 0.0006815521 -2.046011e-05 -0.0007760752 0.0008682222 -0.00083512056 0.0005429579 0.000631626 9.529095e-05 -0.00084888295 0.0006030587 -0.0007663936 -0.0004900164 0.00093992066 -0.0008088029 -0.00074497587 -0.00047857012 0.00033820234 0.00018695509 -0.0005428239 -0.00031996053 0.0008382376 0.0009538671 0.0009682339 0.00010209903 0.00039433595 0.00013338414 0.00016335282 0.00047249824 0.0002152382 2.9350049e-05 -0.0003075034 -0.0006371818 0.00078022387 -0.00058319943 0.00027181173 -9.037275e-05 -0.0003563352 -0.00048255792 0.00031447457 -0.0005720332 -0.0007319135 -0.00025821314 0.00045794714 0.00059024396 -0.00014225324 0.00071275537 -0.0007415303 -0.0004621849 -0.0007676636 -0.000590538 0.0007129706 -0.0009063189 -0.0008449176 -0.00095845107 0.0008987121 -0.00026026194 9.739713e-05 -0.0005983899 -0.0002474885 7.08655e-06 -0.00024416426 -0.00071988325 -0.00060477946 0.00024757604 -0.00092718133 0.00011194032 -0.0001941754 0.0008084248 -3.884791e-05 0.000606823 -0.0006920736 -0.00073903415 0.00054162694 9.177346e-05 -0.0004971019 -0.00025974505 0.00085655786 -0.0008962336 -0.0003590344 9.789853e-05 -2.1102023e-05 0.0009290639 -0.0001892905 -0.0006929033 -0.00074987684 -0.0009668493 -0.00076402817 -0.0005891465 -0.00058076147 -0.00013722503 -5.2848714e-05 -0.00046047766 0.00020907389 0.00037752662 0.0008818543 -0.00045456574 0.00050083234 0.0007083928 -0.00036688172 -0.00072604313 -0.00032604497 -0.0006730445 0.0006343175 0.0009167525 0.00080789835 -0.0008334152 0.00049294636 0.0004980465 0.0005496838 -0.0008129537 1.7108396e-06 -0.00066652324 -0.00087073876 0.0002435731 0.00096974696 0.00063444604 -0.0006901772 0.0002281951 -0.00038120465 0.0009693614 -0.0008595404 0.00094973645 -0.000636494 -0.0006842138 0.00015884021 -6.5695145e-05 -0.0008314571 -5.9813494e-05 -3.4992117e-05 -0.0006120275 0.0005612158 0.00031000772 0.0008203548 0.00072250573 -0.0006485727 0.00046741148 0.00055602787 0.00056428125 0.0005084097 -0.00046700134 0.00042148586 0.00012870634 6.821938e-06 -0.0006304844 0.00014874851 0.00051414385 -0.00089951884 0.0008405384 0.0002922659 -3.891415e-06 -0.0003284975 3.515894e-05 0.0005941668 0.00046608283 -0.00058125856 0.00076891447 -6.23411e-05 -0.0007968092 0.00086609344 0.00049522065 0.00035421422 0.0007724153 -0.0007351842 -0.00056941935 -0.00019586552 -0.0004002297 -0.00015644636 -5.743606e-05 -0.0008188521 0.00018563424 0.0002498607 -8.2167564e-05 0.00047551328 0.00014307641 0.0005847188 -0.00021838583 0.0008324577 -0.0001528227 0.00030056888 -0.00036982342 0.0005985915 0.00030051137 5.3180498e-05 0.0008551559 -0.0007653766 0.00094871316 7.629942e-05 -0.00022992329 -0.00040307385 -0.0008890943 -0.00021686591 0.0002626055 0.0006424141 0.0008857725 -0.0008543554 0.00088446145 -0.0008632834 0.00036452862 0.00078393624 -0.00024497788 -0.000767141 -0.0008140233 0.000112617505 -7.439847e-05 -0.00092884677 0.00030276226 0.00022025988 0.00043481344 0.0004325176 0.00031578925 -0.00095864607 0.0005599888 0.00041625544 -0.00075648946 -0.00020717573 3.459002e-05 -6.2632025e-05 -9.44084e-05 -0.0005411216 2.2379681e-06 0.00043168815 -6.648549e-05 7.815461e-05 0.00020445022 -0.00038815755 -0.0007683453 0.0008953217 -0.00095576677 -0.00024191104 -0.00012366136 -0.00074910955 0.00017299049 0.00077573454 -0.0001480853 0.0007915178 2.8766692e-05 -0.00056369544 -0.00019357749 -7.089181e-05 0.0006108489 0.00069538574 0.0006057819 -0.0005853254 -0.00068152277 0.0005949731 0.00024178473 0.0005217404 4.5376248e-05 0.00076821586 -0.00086714583 0.00096407265 -0.00080454303 -0.0001666029 0.00061347557 -0.0009014938 0.00042171404 -0.00068137236 -0.0006683202 0.0002249867 0.00016953342 -0.00027228566 0.00076872203 -0.00068525656 4.531967e-05 0.0008527022 0.00019776192 -0.0006691823 0.00034566713 -0.0004912168 5.7578785e-05 0.00027924136 0.0007408316 0.0007209083 -0.00047793158 0.00092970266 -0.0005357928 0.000744752 -0.00077955355 -0.0007637949 -0.0001085815 -0.0007952079 -0.00033863552 -5.0224015e-05 -3.699679e-07 -0.0009728074 -0.000635445 -0.0007243799 -3.7862337e-05 0.000506709 -7.6122815e-06 0.00097267586 -0.000379559 0.0007870265 0.00059435074 0.00080683664 1.039647e-05 -4.1981926e-05 0.00018478266 -0.0009692976 0.0008832824 -0.00023320864 0.00073623995 0.0001993886 0.00028315058 -0.0001213674 -0.000966204 0.00013662211 0.0002818209 -0.0009575401 -0.00038100965 -0.00022932736 -0.0004941127 0.00038664695 0.00020558352 0.00042343594 -0.0006325769 -0.00058621843 0.00046082435 0.0006620169 0.0005397473 0.00046843558 -0.0007073578 0.0007971707 -0.00067975326 -0.0007488448 0.00083063485 -0.000241303 -0.0009169035 -0.0003011569 0.000582263 -0.00028255186 0.00048225606 9.879121e-06 0.00039704656 0.00011571811 -0.0009105423 -0.00035644218 0.00086294604 0.00015040743 -0.0005752571 0.00068499206 0.0007281401 0.00070751784 1.4444813e-06 -0.00089317746 -0.0003405353 0.000501556 -0.0006350896 0.0009515303 -0.0009541471 -0.00079383806 -0.0005189637 0.00058769796 -0.00074949255 0.000843502 -0.00096356194 0.0003412303 0.00032187765 5.313079e-06 0.0009319722 0.0004990804 2.8154696e-05 0.00047056214 0.00062581664 0.00029362808 0.00091872574 -0.000130745 -0.0008188543 -0.00043711346 -0.0001456408 -0.00070977875 -0.00015275704 0.00077486655 -0.00049068604 0.00049809634 0.00042493036 -6.825733e-05 0.0001049859 0.0005590643 -0.00064858503 0.00038056273 0.00087066926 -0.00034314347 -0.0007435868 -0.0008986036 -0.0008795253 0.00037799322 0.00049967656 0.000687424 -0.00014185591 9.4577204e-05 0.00029804476 -0.0009646766 -0.0009192813 0.0004481969 -0.0008202775 -0.0003103197 -0.00042091473 0.00057758763 -0.00033649302 0.0009748257 5.432125e-05 -0.00050268334 -0.00035520212 0.00012283516 -0.0005242588 0.0007220964 0.0008812075 0.00041920983 -0.0007173872 -0.00058067485 4.9370574e-06 -9.947887e-05 -0.0005397111 0.00077498006 0.00060909893 -0.00040857715 0.00023265113 0.0005011007 0.00023534324 0.0008368002 -0.00012609246 -0.0006374018 -8.1464066e-05 -0.000812765 0.00096129905 -0.0008414815 -0.00014682091 -0.00027828768 0.0003075531 0.00048543583 -0.0008043528 -0.00043049268 4.801445e-05 0.00039056898 0.0004996514 -0.00013524026 -6.084121e-05 -0.00076425204 0.00044397824 -0.0007470157 0.00032082153 -0.00033476017 -0.000761934 0.0006722481 -4.46646e-05 -0.00093215506 -0.00091562234 5.7726866e-05 -0.0007989397 0.00036507077 0.0003383339 0.00032745092 -0.00054713245 0.0007796391 -0.0008776565 0.00072821125 -6.171933e-05 -0.00014386699 0.00038713368 -0.0002430185 -0.0004293156 -0.00023604068 -0.00060429587 -3.4376164e-05 -0.00052578596 0.00044964277 -0.00093146693 -0.00042496424 -0.0008950401 -0.0009391728 -7.337541e-05 -0.0007894265 -0.0005558634 0.0002710838 -0.00014066428 0.00030319218 0.0008071434 -0.000940457 0.00059421547 -0.00077599206 0.0006381393 0.0007293384 0.00083793665 -0.00077651266 0.0003261268 -0.0007658425 -0.00012167089 -0.0005097918 -0.0008333286 0.00048184197 0.00043302018 -0.0003962745 -0.000759416 0.00034730788 -0.0003840105 -0.00086611265 -0.00042849884 -0.00021211256 0.00085518276 -0.0006305141 0.00071605365 0.0005979409 -0.00047931017 -0.00017176289 -0.0002446191 0.00030494574 -4.4241315e-05 -0.00026988366 -0.00088336365 0.0006283624 -0.00093900296 -0.00084477 0.00013495877 0.00029037427 4.6310015e-07 3.614265e-05 0.00025285862 0.0001760323 0.00073909306 -0.00033656182 -0.0007063857 -0.0007699395 0.00077339984 0.00019006571 -0.00056717347 0.0006241399 0.0008255448 0.0007760357 -0.00066679495 -0.0005020937 -0.0001963221 -0.00064625696 0.0004617992 0.0005531678 -0.00058553915 0.0007030524 -0.00074771047 0.0006057522 -0.00045169226 0.00019154849 -0.00031946646 0.0003310216 0.00075375696 -0.00013618194 -0.00048683467 -0.0008360987 0.00035521993 0.00041318533 0.0006540258 -0.00041892217 -0.0009504872 0.00066616375 -0.0004418695 0.0004316183 0.0007865755 -0.00038504042 0.00015958736 -0.00035050337 -0.0006458737 -0.0005551112 -1.3338868e-05 -0.0007337183 -0.00019490288 -0.00024296064 0.00065512105 0.0001331782 0.00057150354 0.0003729805 -0.0003434025 -0.00049721415 0.00094348565 0.00069046835 -0.0008832257 0.0005122835 0.00080010097 0.00089768553 -0.0007865878 -0.00019659905 0.0001060057 0.00028402102 -0.00015839434 -0.00045946543 0.0006316814 0.0006770096 -3.807398e-05 -0.00057061925 -0.0004269299 -0.0005028198 0.00041565415 5.016988e-05 -0.00023043575 -0.0008871979 -0.00014613848 0.0006280611 0.0006176755 0.0004124553 -0.0002808494 0.0008839463 5.868904e-05 0.000110812834 0.0006030138 -0.0006438956 0.0006381053 0.0009564762 0.00035866816 0.00033519918 0.00040981895 -0.00019008585 -0.000790652 0.00014454045 8.834049e-05 -0.00066379854 0.00019134686 0.00053163106 -0.00070096797 0.00024531048 0.0007584739 -0.00084191584 0.0003431217 -0.0008363875 -0.0007751032 0.0006924829 -0.0007388083 -0.00013364735 -0.0007742855 -0.0007681048 -0.00069371145 3.9644656e-05 0.00017528154 -0.000772121 -0.00078604266 -0.00031055976 -0.00017816445 -0.00060258433 -0.0004127709 0.00035225193 0.00029991847 0.0006440113 0.00041471515 -8.658669e-05 0.00027023454 0.000883788 0.0001863453 0.00017770007 0.00010976568 -0.00090692344 0.0005226488 0.00049257313 2.4936162e-06 0.0008996335 -0.00055840705 0.00031730044 -0.0007628697 -0.000873102 0.00019540661 0.00046337128 0.0005957418 -0.0008483969 0.00042510463 0.00023422902 0.000405855 -6.587128e-05 0.0005413778 0.000712074 -0.0008190364 -0.0009699478 0.00068504957 -9.296602e-05 -0.00091548904 -0.00039901223 0.000116332434 0.0008229115 -0.00016508391 -9.976851e-05 -0.0007192057 -0.00074732536 0.00014281878 -4.623609e-05 -0.0007519759 8.593022e-05 -0.00087778084 -0.00024189777 0.00041184225 0.000109083485 0.00076471583 0.00064310303 -0.00011612044 0.00048402895 0.0005985588 0.0008527122 0.00088657474 0.00048126653 0.00045033812 0.00070166297 -0.0001529681 -0.0005517283 0.0008660223 0.000118218246 -0.00049362564 -8.4813335e-05 -0.0005106274 0.00089036557 0.00033180916 0.00041811494 0.0006352273 0.00079825893 -0.00046688563 -0.00061958237 -0.00036390976 -0.0003625676 -0.0009222942 -5.968497e-05 -0.00079126295 0.0009541615 -0.0003325597 -0.00061675557 -0.0007914897 -0.0003478505 -0.00093304995 7.651246e-05 0.0005284577 -0.00028075045 0.00074874784 -0.0001830518 -0.0007098969 -0.00030513725 -0.0003066901 -0.00069297 -0.0009455505 -0.0003971447 -0.00015513215 0.000488688 -0.0007432664 -0.00048577366 0.00013298145 -0.00016362581 0.00034645607 -0.00018305448 0.00042218482 0.0007804411 -0.00077283836 0.0003678142 0.0005843695 -5.6336983e-05 0.00066080526 -0.0005289458 -0.00044688943 -0.0007663907 0.0009248975 -0.0009186361 -0.00031735376 -4.2352476e-05 -0.00047352992 0.0009250104 -0.00066733034 -0.0007831047 0.0009028062 -0.0008104844 0.00094630243 -0.00040015928 0.0005534409 -4.043046e-05 -0.00039031426 -0.00073291245 -0.0006126624 0.0006683273 0.0006173742 1.6058795e-05 0.00062419265 0.0003764627 0.0003744274 0.00026150374 -0.0009489675 0.00090438337 -0.00080122997 -0.00029360864 0.00013926672 0.0005124883 -0.00089942326 0.00016538671 0.0006209472 -0.0008552448 0.00093313283 -0.00050954963 0.0009327708 -0.00063736073 0.00064384006 0.0009143157 -0.00090111804 2.8371927e-05 -0.0007549969 0.00079381315 0.00093535054 -0.0005910557 8.231192e-05 -0.00021880597 -0.0007574542 8.002983e-05 -0.00096719014 0.00025527063 -0.0007514317 0.0005556609 0.000739448 -0.0002494417 -0.00039191626 -0.0009384394 0.0004803302 0.0002842869 0.00085423107 0.00032229477 -0.00028339901 0.0003474662 0.000842493 0.0009016484 0.0007465333 -0.0008353612 -0.00073902786 0.00070908933 -0.00072689087 0.0003174619 0.0007836501 -0.00031318504 0.0006600823 -0.00079635775 0.00063363765 0.0005460845 0.00032588944 -0.00079345354 0.0008946054 0.00080355245 -0.00015275634 0.0004011155 0.0006225017 -0.000169895 0.00053588883 -0.00039396738 -0.00012451329 -0.00011794618 -0.00040640682 -6.916153e-05 -0.00075215416 0.00035579258 0.00088457053 0.00046696817 0.00062341185 -0.00046250585 0.0004748085 -0.0006526143 -0.00048539916 0.00096395577 0.0006252136 -0.00048711302 -0.0005932943 0.00070581934 0.0002642431 0.00064328406 -0.0006598971 -9.484147e-05 -9.236939e-05 -2.1458254e-05 0.00021693169 -0.00065927673 0.0004280347 -0.0002682166 0.0008152969 -0.000100739766 0.0008942068 -8.196535e-05 0.0005088784 -0.0007416947 -0.00088873564 -3.3431337e-05 -0.00022060657 0.00097352546 0.00044210255 -0.0005438018 0.0007192483 5.7648984e-05 -0.00093286054 0.00055831927 -0.00019630324 -0.0009198906 0.000850169 0.0007078496 0.0008351898 3.5446836e-05 0.00075028324 0.00050646777 -0.0006774758 0.00090680004 -0.00034762267 -0.00095150433 0.0008358775 -0.00051833736 0.00082003465 -0.0007669295 0.00090566534 -0.0005776285 0.00039050868 0.0009554776 0.0004103667 -0.00020771904 -0.0004839108 -0.0009492866 0.00041077076 0.0007261614 -0.00046252168 0.0005782194 0.0006680323 -0.00088055886 0.00020488806 -0.00066792755 -0.00042284047 8.3676074e-05 -0.0006864226 -0.0004041756 -0.00073365367 -0.00068630173 -0.00067755266 0.0009681963 0.00081278454 -1.8013176e-05 -0.00025633269 0.00061021664 0.00013078027 -0.00087830937 -0.0006894168 0.00010039308 0.00077482674 0.0003123507 0.00096094154 0.00063985225 2.8806622e-05 0.00084491924 0.0008788839 0.0007870266 0.0009181907 -0.0009162717 0.00034307642 -0.0007629802 -0.0006973975 -0.00082287635 0.00031274406
